{"learner":{"attributes":{"best_iteration":"165","best_score":"0.20122873785446332","scikit_learn":"{\"_estimator_type\": \"regressor\"}"},"feature_names":["age","day_type","order_value","discount_applied","delivery_fee","time_taken_to_order","is_repeat_order","rainy_weather","net_value","city_Bangalore","city_Chandigarh","city_Delhi","city_Hyderabad","city_Mumbai","city_Pune","order_time_Afternoon","order_time_Evening","order_time_Morning","order_time_Night","cuisine_Biryani","cuisine_Chinese","cuisine_Desserts","cuisine_Fast Food","cuisine_North Indian","cuisine_South Indian","meal_type_Breakfast","meal_type_Dinner","meal_type_Lunch","meal_type_Snacks","restaurant_type_Budget","restaurant_type_Mid-range","restaurant_type_Premium","mood_Celebrating","mood_Happy","mood_Lazy","mood_Stressed","hunger_level_High","hunger_level_Low","hunger_level_Medium","company_Alone","company_Family","company_Friends","company_Partner","rank_Bronze","rank_Diamond","rank_Gold","rank_Silver"],"feature_types":["int","int","int","int","int","int","int","int","int","int","int","int","int","int","int","int","int","int","int","int","int","int","int","int","int","int","int","int","int","int","int","int","int","int","int","int","int","int","int","int","int","int","int","int","int","int","int"],"gradient_booster":{"model":{"cats":{"enc":[],"feature_segments":[],"sorted_idx":[]},"gbtree_model_param":{"num_parallel_tree":"1","num_trees":"216"},"iteration_indptr":[0,1,2,3,4,5,6,7,8,9,10,11,12,13,14,15,16,17,18,19,20,21,22,23,24,25,26,27,28,29,30,31,32,33,34,35,36,37,38,39,40,41,42,43,44,45,46,47,48,49,50,51,52,53,54,55,56,57,58,59,60,61,62,63,64,65,66,67,68,69,70,71,72,73,74,75,76,77,78,79,80,81,82,83,84,85,86,87,88,89,90,91,92,93,94,95,96,97,98,99,100,101,102,103,104,105,106,107,108,109,110,111,112,113,114,115,116,117,118,119,120,121,122,123,124,125,126,127,128,129,130,131,132,133,134,135,136,137,138,139,140,141,142,143,144,145,146,147,148,149,150,151,152,153,154,155,156,157,158,159,160,161,162,163,164,165,166,167,168,169,170,171,172,173,174,175,176,177,178,179,180,181,182,183,184,185,186,187,188,189,190,191,192,193,194,195,196,197,198,199,200,201,202,203,204,205,206,207,208,209,210,211,212,213,214,215,216],"tree_info":[0,0,0,0,0,0,0,0,0,0,0,0,0,0,0,0,0,0,0,0,0,0,0,0,0,0,0,0,0,0,0,0,0,0,0,0,0,0,0,0,0,0,0,0,0,0,0,0,0,0,0,0,0,0,0,0,0,0,0,0,0,0,0,0,0,0,0,0,0,0,0,0,0,0,0,0,0,0,0,0,0,0,0,0,0,0,0,0,0,0,0,0,0,0,0,0,0,0,0,0,0,0,0,0,0,0,0,0,0,0,0,0,0,0,0,0,0,0,0,0,0,0,0,0,0,0,0,0,0,0,0,0,0,0,0,0,0,0,0,0,0,0,0,0,0,0,0,0,0,0,0,0,0,0,0,0,0,0,0,0,0,0,0,0,0,0,0,0,0,0,0,0,0,0,0,0,0,0,0,0,0,0,0,0,0,0,0,0,0,0,0,0,0,0,0,0,0,0,0,0,0,0,0,0,0,0,0,0,0,0,0,0,0,0,0,0],"trees":[{"base_weights":[9.631737E-4,-2.4939114E-1,2.4658848E-1,-3.8634014E-1,1.9482294E-2,1.14508614E-1,5.067432E-1,-5.3951305E-1,-2.344595E-1,-1.4136046E-1,1.7995727E-1,-3.813864E-2,2.6804915E-1,3.5963985E-1,6.53444E-1,-6.035959E-1,-3.4356758E-1,-2.9834858E-1,-3.538327E-2,-2.0603645E-1,6.2945835E-2,1.058524E-1,3.9614943E-1,-1.0874621E-1,1.7439753E-1,1.9326721E-1,4.7775924E-1,2.8749344E-1,5.845107E-1,5.837625E-1,4.2278122E-2,-4.9851626E-1,-7.062061E-1,-2.4349438E-1,-4.3696424E-1,-2.0502433E-1,-3.9031652E-1,7.8185186E-2,-1.4120178E-1,-2.4255265E-1,-1.324283E-1,8.62011E-2,7.503209E-4,7.705219E-2,1.634669E-1,3.7347886E-1,4.608229E-1,-1.0264814E-2,-2.0874816E-1,2.863113E-1,6.1721228E-2,2.8221542E-1,9.8387286E-2,5.8719295E-1,3.7313372E-1,2.3935144E-1,3.9148223E-1,5.468601E-1,6.311131E-1,5.4953563E-1,6.54488E-1,-2.6645482E-2,-2.10736E-2,-3.593853E-2,-2.6949147E-2,-1.0828834E-2,-1.608421E-2,-2.2701768E-2,-1.6790075E-2,-1.2235807E-2,-6.0482225E-3,-2.1037506E-2,-1.7424723E-2,5.340751E-3,1.3071131E-3,-7.938629E-3,-2.084284E-3,-8.4570665E-3,-1.307582E-2,-5.4902355E-3,-9.897539E-3,3.3754276E-3,1.0264796E-2,-1.2633711E-3,7.5912247E-3,5.1223845E-3,1.222471E-3,8.941278E-3,4.7570113E-3,1.7787106E-2,2.480947E-2,2.414555E-2,1.21896025E-2,-3.0331265E-3,4.5384555E-3,-1.1526064E-2,-8.109643E-3,1.2821719E-2,1.7003333E-2,5.488047E-3,1.9128443E-3,1.2318003E-2,1.7946819E-2,3.7068208E-3,7.3888204E-3,3.3168685E-2,2.8104289E-2,1.7488217E-2,2.1691328E-2,1.3069694E-2,9.677785E-3,2.2066668E-2,1.835122E-2,2.3105398E-2,2.8517539E-2,3.2787103E-2,2.6107032E-2,2.64283E-2,3.2732453E-2,3.4842785E-2,3.0696953E-2],"categories":[],"categories_nodes":[],"categories_segments":[],"categories_sizes":[],"default_left":[0,0,0,0,0,0,0,0,0,0,0,0,0,0,0,0,0,0,0,0,0,0,0,0,0,0,0,0,0,0,0,0,0,0,0,0,0,0,0,0,0,0,0,0,0,0,0,0,0,0,0,0,0,0,0,0,0,0,0,0,0,0,0,0,0,0,0,0,0,0,0,0,0,0,0,0,0,0,0,0,0,0,0,0,0,0,0,0,0,0,0,0,0,0,0,0,0,0,0,0,0,0,0,0,0,0,0,0,0,0,0,0,0,0,0,0,0,0,0,0,0],"id":0,"left_children":[1,3,5,7,9,11,13,15,17,19,21,23,25,27,29,31,33,35,37,39,41,43,45,47,49,51,53,55,57,59,-1,61,63,65,67,69,71,73,75,77,79,81,83,85,87,89,91,93,95,97,99,101,103,105,107,109,111,113,115,117,119,-1,-1,-1,-1,-1,-1,-1,-1,-1,-1,-1,-1,-1,-1,-1,-1,-1,-1,-1,-1,-1,-1,-1,-1,-1,-1,-1,-1,-1,-1,-1,-1,-1,-1,-1,-1,-1,-1,-1,-1,-1,-1,-1,-1,-1,-1,-1,-1,-1,-1,-1,-1,-1,-1,-1,-1,-1,-1,-1,-1],"loss_changes":[1.967111E3,5.833409E2,5.547723E2,2.4405249E2,1.3803812E2,2.5104976E2,1.17096436E2,6.540149E1,6.704294E1,3.53068E1,4.2846E1,8.063475E1,8.365234E1,4.391153E1,3.5932617E1,4.2086914E1,1.1950592E1,3.4174103E1,1.5417661E1,5.4216003E0,9.299531E-1,3.2977276E0,8.292923E-1,3.971618E1,1.6879768E1,3.320659E1,1.58446045E1,1.0214127E1,8.111572E-1,4.4818115E0,0E0,4.9372253E0,3.791626E0,1.2457619E0,9.976883E-1,6.5866623E0,2.4104004E0,9.1950536E-1,1.1544352E0,1.8421402E0,9.788532E-1,1.0279958E0,6.9562334E-1,1.7768779E0,6.797924E-1,9.3566895E-1,7.115936E-1,1.0357295E1,1.9909286E0,9.92054E-1,7.499113E-1,5.5013123E0,2.273117E0,9.354248E-1,8.694763E-1,1.3727341E0,6.3053894E-1,4.7704315E-1,4.3056488E-1,2.6384277E0,6.837158E-1,0E0,0E0,0E0,0E0,0E0,0E0,0E0,0E0,0E0,0E0,0E0,0E0,0E0,0E0,0E0,0E0,0E0,0E0,0E0,0E0,0E0,0E0,0E0,0E0,0E0,0E0,0E0,0E0,0E0,0E0,0E0,0E0,0E0,0E0,0E0,0E0,0E0,0E0,0E0,0E0,0E0,0E0,0E0,0E0,0E0,0E0,0E0,0E0,0E0,0E0,0E0,0E0,0E0,0E0,0E0,0E0,0E0,0E0,0E0,0E0],"parents":[2147483647,0,0,1,1,2,2,3,3,4,4,5,5,6,6,7,7,8,8,9,9,10,10,11,11,12,12,13,13,14,14,15,15,16,16,17,17,18,18,19,19,20,20,21,21,22,22,23,23,24,24,25,25,26,26,27,27,28,28,29,29,31,31,32,32,33,33,34,34,35,35,36,36,37,37,38,38,39,39,40,40,41,41,42,42,43,43,44,44,45,45,46,46,47,47,48,48,49,49,50,50,51,51,52,52,53,53,54,54,55,55,56,56,57,57,58,58,59,59,60,60],"right_children":[2,4,6,8,10,12,14,16,18,20,22,24,26,28,30,32,34,36,38,40,42,44,46,48,50,52,54,56,58,60,-1,62,64,66,68,70,72,74,76,78,80,82,84,86,88,90,92,94,96,98,100,102,104,106,108,110,112,114,116,118,120,-1,-1,-1,-1,-1,-1,-1,-1,-1,-1,-1,-1,-1,-1,-1,-1,-1,-1,-1,-1,-1,-1,-1,-1,-1,-1,-1,-1,-1,-1,-1,-1,-1,-1,-1,-1,-1,-1,-1,-1,-1,-1,-1,-1,-1,-1,-1,-1,-1,-1,-1,-1,-1,-1,-1,-1,-1,-1,-1,-1],"split_conditions":[1E0,1E0,1E0,1E0,1E0,1E0,1E0,1E0,1E0,1E0,1E0,1E0,1E0,1E0,1E0,1E0,1E0,1E0,1E0,1E0,3.7E1,1E0,1E0,1E0,1E0,1E0,1E0,1E0,3.3E1,1E0,4.2278122E-2,1E0,1.4E1,1E0,1E0,1E0,3.4E1,1E0,1E0,4E0,1E0,1E0,1.3E1,1E0,1E0,1.3E1,1.4E1,1E0,1E0,1E0,1E0,1E0,1E0,4E0,1E0,1E0,1E0,4E0,1E0,1E0,1E0,-2.6645482E-2,-2.10736E-2,-3.593853E-2,-2.6949147E-2,-1.0828834E-2,-1.608421E-2,-2.2701768E-2,-1.6790075E-2,-1.2235807E-2,-6.0482225E-3,-2.1037506E-2,-1.7424723E-2,5.340751E-3,1.3071131E-3,-7.938629E-3,-2.084284E-3,-8.4570665E-3,-1.307582E-2,-5.4902355E-3,-9.897539E-3,3.3754276E-3,1.0264796E-2,-1.2633711E-3,7.5912247E-3,5.1223845E-3,1.222471E-3,8.941278E-3,4.7570113E-3,1.7787106E-2,2.480947E-2,2.414555E-2,1.21896025E-2,-3.0331265E-3,4.5384555E-3,-1.1526064E-2,-8.109643E-3,1.2821719E-2,1.7003333E-2,5.488047E-3,1.9128443E-3,1.2318003E-2,1.7946819E-2,3.7068208E-3,7.3888204E-3,3.3168685E-2,2.8104289E-2,1.7488217E-2,2.1691328E-2,1.3069694E-2,9.677785E-3,2.2066668E-2,1.835122E-2,2.3105398E-2,2.8517539E-2,3.2787103E-2,2.6107032E-2,2.64283E-2,3.2732453E-2,3.4842785E-2,3.0696953E-2],"split_indices":[3,36,36,6,6,6,6,33,33,33,33,33,33,33,33,37,37,37,37,34,0,34,39,37,37,37,37,34,0,34,0,34,5,15,22,34,0,31,19,5,28,19,5,31,10,5,5,34,34,29,46,34,34,5,39,31,46,5,11,24,1,0,0,0,0,0,0,0,0,0,0,0,0,0,0,0,0,0,0,0,0,0,0,0,0,0,0,0,0,0,0,0,0,0,0,0,0,0,0,0,0,0,0,0,0,0,0,0,0,0,0,0,0,0,0,0,0,0,0,0,0],"split_type":[0,0,0,0,0,0,0,0,0,0,0,0,0,0,0,0,0,0,0,0,0,0,0,0,0,0,0,0,0,0,0,0,0,0,0,0,0,0,0,0,0,0,0,0,0,0,0,0,0,0,0,0,0,0,0,0,0,0,0,0,0,0,0,0,0,0,0,0,0,0,0,0,0,0,0,0,0,0,0,0,0,0,0,0,0,0,0,0,0,0,0,0,0,0,0,0,0,0,0,0,0,0,0,0,0,0,0,0,0,0,0,0,0,0,0,0,0,0,0,0,0],"sum_hessian":[3.1987E4,1.5841E4,1.6146E4,1.0495E4,5.346E3,1.071E4,5.436E3,5.224E3,5.271E3,2.67E3,2.676E3,5.371E3,5.339E3,2.716E3,2.72E3,3.935E3,1.289E3,3.99E3,1.281E3,2.028E3,6.42E2,1.994E3,6.82E2,4.032E3,1.339E3,3.937E3,1.402E3,2.058E3,6.58E2,1.999E3,7.21E2,1.947E3,1.988E3,6.24E2,6.65E2,1.982E3,2.008E3,6.18E2,6.63E2,1.354E3,6.74E2,4.67E2,1.75E2,1.331E3,6.63E2,5.1E2,1.72E2,2.032E3,2E3,6.71E2,6.68E2,2.031E3,1.906E3,6.83E2,7.19E2,1.409E3,6.49E2,3.71E2,2.87E2,1.353E3,6.46E2,1.342E3,6.05E2,1.846E3,1.42E2,4.67E2,1.57E2,5.66E2,9.9E1,1.345E3,6.37E2,1.157E3,8.51E2,3.98E2,2.2E2,5.63E2,1E2,2.8E2,1.074E3,5.03E2,1.71E2,4.05E2,6.2E1,1.5E2,2.5E1,8.97E2,4.34E2,5.4E2,1.23E2,4.49E2,6.1E1,1.55E2,1.7E1,1.356E3,6.76E2,1.36E3,6.4E2,4.35E2,2.36E2,2.18E2,4.5E2,1.387E3,6.44E2,1.28E3,6.26E2,1.63E2,5.2E2,5.24E2,1.95E2,9.48E2,4.61E2,2.08E2,4.41E2,8.5E1,2.86E2,2.3E2,5.7E1,1.133E3,2.2E2,3.08E2,3.38E2],"tree_param":{"num_deleted":"0","num_feature":"47","num_nodes":"121","size_leaf_vector":"1"}},{"base_weights":[1.8743934E-3,1.9836038E-1,-5.825812E-1,5.1235855E-1,-9.190357E-2,-2.6814502E-1,-8.650092E-1,2.74421E-1,7.502898E-1,-3.283355E-1,1.4401437E-1,-5.1834416E-1,-2.791903E-2,-1.115599E0,-6.276349E-1,1.5149078E-1,5.0895107E-1,6.231652E-1,1.0035576E0,-4.55382E-1,-7.884582E-2,1.9030415E-2,4.0355402E-1,-6.497481E-1,-2.605143E-1,-1.5967876E-1,2.22173E-1,-1.234692E0,-8.645496E-1,-7.565144E-1,-3.8785362E-1,3.201189E-1,2.2321751E-2,3.6456743E-1,6.547194E-1,5.185281E-1,8.31954E-1,1.1628939E0,8.666539E-1,-3.0736768E-1,-6.3015306E-1,8.169595E-2,-2.4774402E-1,1.8100892E-1,-1.2446126E-1,5.020641E-1,1.91925E-1,-7.9535824E-1,-4.9561697E-1,-1.2788795E-1,-4.1785294E-1,-4.911354E-2,-3.20349E-1,7.692275E-2,3.77435E-1,-1.0693544E0,-1.4290106E0,-6.897514E-1,-1.0131543E0,-5.99272E-1,-9.0644366E-1,-1.8490613E-1,-5.4115045E-1,8.495882E-3,2.3149582E-2,-3.8878915E-3,1.11855585E-2,2.621607E-2,1.130547E-2,3.8542554E-2,2.5622094E-2,1.8494E-2,3.3344407E-2,4.8773073E-2,3.3688467E-2,6.33175E-2,4.7880597E-2,4.8088316E-2,3.332889E-2,-2.1136327E-2,-5.4479116E-3,-3.678263E-2,-2.096623E-2,8.898865E-3,-6.583985E-3,-2.0068265E-2,-4.330289E-3,1.9422899E-3,1.625756E-2,-1.3624138E-2,8.796463E-4,3.326273E-2,1.8336736E-2,1.569799E-2,1.4187628E-3,-3.4154158E-2,-4.9098495E-2,-1.9771356E-2,-3.341833E-2,-1.2704323E-2,-3.6758857E-4,-2.7076578E-2,-1.3885151E-2,-9.236881E-3,4.349834E-3,-2.2678219E-2,-9.952404E-3,1.0965812E-2,-3.5015394E-3,2.8773844E-2,1.3411313E-2,-6.078099E-2,-4.6482783E-2,-7.822478E-2,-6.39432E-2,-4.0983062E-2,-2.7423311E-2,-5.739962E-2,-4.303844E-2,-3.6565904E-2,-2.249023E-2,-5.235636E-2,-3.8761094E-2,-1.613762E-2,-2.9697025E-3,-3.3686385E-2,-1.9460663E-2],"categories":[],"categories_nodes":[],"categories_segments":[],"categories_sizes":[],"default_left":[0,0,0,0,0,0,0,0,0,0,0,0,0,0,0,0,0,0,0,0,0,0,0,0,0,0,0,0,0,0,0,0,0,0,0,0,0,0,0,0,0,0,0,0,0,0,0,0,0,0,0,0,0,0,0,0,0,0,0,0,0,0,0,0,0,0,0,0,0,0,0,0,0,0,0,0,0,0,0,0,0,0,0,0,0,0,0,0,0,0,0,0,0,0,0,0,0,0,0,0,0,0,0,0,0,0,0,0,0,0,0,0,0,0,0,0,0,0,0,0,0,0,0,0,0,0,0],"id":1,"left_children":[1,3,5,7,9,11,13,15,17,19,21,23,25,27,29,31,33,35,37,39,41,43,45,47,49,51,53,55,57,59,61,63,65,67,69,71,73,75,77,79,81,83,85,87,89,91,93,95,97,99,101,103,105,107,109,111,113,115,117,119,121,123,125,-1,-1,-1,-1,-1,-1,-1,-1,-1,-1,-1,-1,-1,-1,-1,-1,-1,-1,-1,-1,-1,-1,-1,-1,-1,-1,-1,-1,-1,-1,-1,-1,-1,-1,-1,-1,-1,-1,-1,-1,-1,-1,-1,-1,-1,-1,-1,-1,-1,-1,-1,-1,-1,-1,-1,-1,-1,-1,-1,-1,-1,-1,-1,-1],"loss_changes":[3.69294E3,2.19357E3,7.182937E2,6.542942E2,6.9766943E2,2.3018518E2,2.5281885E2,1.6662283E2,1.8547095E2,1.9797394E2,2.0308847E2,6.3389343E1,6.445676E1,6.088159E1,6.7414795E1,8.265376E1,4.160193E1,8.370166E1,4.109265E1,1.06876526E2,5.7206226E1,9.826886E1,4.232846E1,2.7480042E1,1.3197266E1,2.2740639E1,1.5193459E1,4.354785E1,1.6704956E1,3.3027832E1,2.379335E1,3.5243942E1,4.335058E1,2.2022781E1,1.5929626E1,5.6386597E1,2.8490417E1,1.766748E1,1.9187866E1,5.1292374E1,4.1885193E1,2.225215E1,2.541262E1,4.068392E1,4.7147495E1,3.0409302E1,1.2924368E1,1.2675568E1,1.0224213E1,5.261307E0,4.876343E0,1.4045535E1,8.344799E0,7.3391876E0,6.8963394E0,1.443988E1,1.1059204E1,5.2586517E0,6.4088745E0,1.3447205E1,1.2609253E1,5.724886E0,8.540443E0,0E0,0E0,0E0,0E0,0E0,0E0,0E0,0E0,0E0,0E0,0E0,0E0,0E0,0E0,0E0,0E0,0E0,0E0,0E0,0E0,0E0,0E0,0E0,0E0,0E0,0E0,0E0,0E0,0E0,0E0,0E0,0E0,0E0,0E0,0E0,0E0,0E0,0E0,0E0,0E0,0E0,0E0,0E0,0E0,0E0,0E0,0E0,0E0,0E0,0E0,0E0,0E0,0E0,0E0,0E0,0E0,0E0,0E0,0E0,0E0,0E0,0E0,0E0,0E0],"parents":[2147483647,0,0,1,1,2,2,3,3,4,4,5,5,6,6,7,7,8,8,9,9,10,10,11,11,12,12,13,13,14,14,15,15,16,16,17,17,18,18,19,19,20,20,21,21,22,22,23,23,24,24,25,25,26,26,27,27,28,28,29,29,30,30,31,31,32,32,33,33,34,34,35,35,36,36,37,37,38,38,39,39,40,40,41,41,42,42,43,43,44,44,45,45,46,46,47,47,48,48,49,49,50,50,51,51,52,52,53,53,54,54,55,55,56,56,57,57,58,58,59,59,60,60,61,61,62,62],"right_children":[2,4,6,8,10,12,14,16,18,20,22,24,26,28,30,32,34,36,38,40,42,44,46,48,50,52,54,56,58,60,62,64,66,68,70,72,74,76,78,80,82,84,86,88,90,92,94,96,98,100,102,104,106,108,110,112,114,116,118,120,122,124,126,-1,-1,-1,-1,-1,-1,-1,-1,-1,-1,-1,-1,-1,-1,-1,-1,-1,-1,-1,-1,-1,-1,-1,-1,-1,-1,-1,-1,-1,-1,-1,-1,-1,-1,-1,-1,-1,-1,-1,-1,-1,-1,-1,-1,-1,-1,-1,-1,-1,-1,-1,-1,-1,-1,-1,-1,-1,-1,-1,-1,-1,-1,-1,-1],"split_conditions":[1E0,5.9E1,5.7E1,1E0,1E0,1E0,1E0,1E0,1E0,1E0,1E0,1E0,1E0,1E0,1E0,3.7E1,1E0,1E0,3.8E1,8.1E1,8E1,7.8E1,1E0,1E0,4E1,4.3E1,1E0,8E1,7.7E1,7.8E1,7.6E1,1E0,1E0,3.9E1,4.2E1,1E0,4E1,1E0,1E0,1E0,1E0,1E0,1E0,1E0,1E0,7.8E1,8.2E1,4.4E1,4.4E1,1E0,1E0,1E0,1E0,3.9E1,3.2E1,1E0,1E0,1E0,1E0,1E0,1E0,1E0,1E0,8.495882E-3,2.3149582E-2,-3.8878915E-3,1.11855585E-2,2.621607E-2,1.130547E-2,3.8542554E-2,2.5622094E-2,1.8494E-2,3.3344407E-2,4.8773073E-2,3.3688467E-2,6.33175E-2,4.7880597E-2,4.8088316E-2,3.332889E-2,-2.1136327E-2,-5.4479116E-3,-3.678263E-2,-2.096623E-2,8.898865E-3,-6.583985E-3,-2.0068265E-2,-4.330289E-3,1.9422899E-3,1.625756E-2,-1.3624138E-2,8.796463E-4,3.326273E-2,1.8336736E-2,1.569799E-2,1.4187628E-3,-3.4154158E-2,-4.9098495E-2,-1.9771356E-2,-3.341833E-2,-1.2704323E-2,-3.6758857E-4,-2.7076578E-2,-1.3885151E-2,-9.236881E-3,4.349834E-3,-2.2678219E-2,-9.952404E-3,1.0965812E-2,-3.5015394E-3,2.8773844E-2,1.3411313E-2,-6.078099E-2,-4.6482783E-2,-7.822478E-2,-6.39432E-2,-4.0983062E-2,-2.7423311E-2,-5.739962E-2,-4.303844E-2,-3.6565904E-2,-2.249023E-2,-5.235636E-2,-3.8761094E-2,-1.613762E-2,-2.9697025E-3,-3.3686385E-2,-1.9460663E-2],"split_indices":[35,4,4,3,3,3,3,36,36,36,36,36,36,36,36,4,6,32,4,4,4,4,34,6,4,4,6,4,4,4,4,6,32,4,4,6,4,34,34,32,32,34,6,6,6,4,4,4,4,6,6,6,6,4,4,6,6,6,6,6,6,6,6,0,0,0,0,0,0,0,0,0,0,0,0,0,0,0,0,0,0,0,0,0,0,0,0,0,0,0,0,0,0,0,0,0,0,0,0,0,0,0,0,0,0,0,0,0,0,0,0,0,0,0,0,0,0,0,0,0,0,0,0,0,0,0,0],"split_type":[0,0,0,0,0,0,0,0,0,0,0,0,0,0,0,0,0,0,0,0,0,0,0,0,0,0,0,0,0,0,0,0,0,0,0,0,0,0,0,0,0,0,0,0,0,0,0,0,0,0,0,0,0,0,0,0,0,0,0,0,0,0,0,0,0,0,0,0,0,0,0,0,0,0,0,0,0,0,0,0,0,0,0,0,0,0,0,0,0,0,0,0,0,0,0,0,0,0,0,0,0,0,0,0,0,0,0,0,0,0,0,0,0,0,0,0,0,0,0,0,0,0,0,0,0,0,0],"sum_hessian":[3.2156E4,2.4066E4,8.09E3,1.156E4,1.2506E4,3.829E3,4.261E3,5.781E3,5.779E3,6.246E3,6.26E3,1.875E3,1.954E3,2.071E3,2.19E3,3.794E3,1.987E3,3.85E3,1.929E3,4.138E3,2.108E3,4.226E3,2.034E3,1.241E3,6.34E2,1.28E3,6.74E2,1.402E3,6.69E2,1.423E3,7.67E2,1.645E3,2.149E3,1E3,9.87E2,2.567E3,1.283E3,8.88E2,1.041E3,2.242E3,1.896E3,1.081E3,1.027E3,1.985E3,2.241E3,1.387E3,6.47E2,6.36E2,6.05E2,3.45E2,2.89E2,7.59E2,5.21E2,3.49E2,3.25E2,7.61E2,6.41E2,3.1E2,3.59E2,6.97E2,7.26E2,3.31E2,4.36E2,8.03E2,8.42E2,1.436E3,7.13E2,4.63E2,5.37E2,5.41E2,4.46E2,1.284E3,1.283E3,6.7E2,6.13E2,5.87E2,3.01E2,7.03E2,3.38E2,1.417E3,8.25E2,1.262E3,6.34E2,7.45E2,3.36E2,5.25E2,5.02E2,1E3,9.85E2,1.097E3,1.144E3,6.27E2,7.6E2,3.7E2,2.77E2,4E2,2.36E2,3.85E2,2.2E2,1.68E2,1.77E2,1.52E2,1.37E2,3.8E2,3.79E2,2.47E2,2.74E2,1.77E2,1.72E2,1.14E2,2.11E2,3.68E2,3.93E2,3.32E2,3.09E2,1.59E2,1.51E2,1.87E2,1.72E2,3.68E2,3.29E2,3.47E2,3.79E2,1.57E2,1.74E2,2.31E2,2.05E2],"tree_param":{"num_deleted":"0","num_feature":"47","num_nodes":"127","size_leaf_vector":"1"}},{"base_weights":[-3.7965428E-3,1.8723486E-1,-5.626115E-1,4.6901265E-1,-1.03332914E-1,-2.3096104E-1,-8.1955796E-1,2.462972E-1,6.9449794E-1,-3.2840616E-1,1.2217956E-1,-4.6604478E-1,-5.184676E-3,-1.0441995E0,-5.98917E-1,1.2954585E-1,4.6985984E-1,5.7267463E-1,9.353897E-1,-4.507718E-1,-9.204282E-2,2.7125084E-3,3.6827156E-1,-5.8824146E-1,-2.2439176E-1,-1.3030592E-1,2.2551572E-1,-1.16196E0,-7.910196E-1,-7.1731E-1,-3.6529747E-1,2.3472755E-1,-7.8414954E-2,5.677032E-1,2.7697235E-1,7.358725E-1,4.2569524E-1,1.0861757E0,7.976619E-1,-2.8035572E-1,-5.8239245E-1,8.786609E-3,-2.9706576E-1,9.714556E-2,-1.971692E-1,4.5560622E-1,1.7458476E-1,-4.4258285E-1,-7.0322645E-1,-4.9224984E-2,-3.2448927E-1,-1.5627008E-2,-2.648084E-1,3.558728E-1,6.893991E-2,-9.705301E-1,-1.3230643E0,-5.8939093E-1,-9.192394E-1,-4.8897937E-1,-8.233986E-1,-1.3269413E-1,-4.9523538E-1,1.6398814E-2,1.8292916E-3,6.8763737E-4,-1.351873E-2,3.637593E-2,2.2156527E-2,1.9968014E-2,5.4033757E-3,4.1390155E-2,2.6995728E-2,2.6298437E-2,1.1053653E-2,5.9240278E-2,4.4772398E-2,4.445717E-2,3.0356368E-2,-9.191217E-3,-2.3569591E-2,-2.4397727E-2,-3.8313497E-2,6.786669E-3,-7.036678E-3,-7.5599216E-3,-2.1780126E-2,1.2505949E-2,-1.0629196E-3,-3.7513808E-3,-1.8257245E-2,3.001648E-2,1.692476E-2,1.4126721E-2,-2.1762172E-4,-1.7582303E-2,-2.6335105E-2,-3.0435158E-2,-4.028098E-2,1.642305E-3,-4.7628144E-3,-1.3784885E-2,-2.2861825E-2,3.7465596E-3,-5.4653934E-3,-8.905395E-3,-1.8211003E-2,2.431045E-2,1.4652143E-2,6.2964605E-3,-1.5231014E-4,-4.386747E-2,-5.318004E-2,-6.1564513E-2,-7.044729E-2,-2.755333E-2,-3.4201644E-2,-4.053218E-2,-4.9712863E-2,-1.9715969E-2,-2.8544271E-2,-3.6145E-2,-4.6399467E-2,-2.5901692E-3,-1.0027877E-2,-1.9791812E-2,-2.989437E-2],"categories":[],"categories_nodes":[],"categories_segments":[],"categories_sizes":[],"default_left":[0,0,0,0,0,0,0,0,0,0,0,0,0,0,0,0,0,0,0,0,0,0,0,0,0,0,0,0,0,0,0,0,0,0,0,0,0,0,0,0,0,0,0,0,0,0,0,0,0,0,0,0,0,0,0,0,0,0,0,0,0,0,0,0,0,0,0,0,0,0,0,0,0,0,0,0,0,0,0,0,0,0,0,0,0,0,0,0,0,0,0,0,0,0,0,0,0,0,0,0,0,0,0,0,0,0,0,0,0,0,0,0,0,0,0,0,0,0,0,0,0,0,0,0,0,0,0],"id":2,"left_children":[1,3,5,7,9,11,13,15,17,19,21,23,25,27,29,31,33,35,37,39,41,43,45,47,49,51,53,55,57,59,61,63,65,67,69,71,73,75,77,79,81,83,85,87,89,91,93,95,97,99,101,103,105,107,109,111,113,115,117,119,121,123,125,-1,-1,-1,-1,-1,-1,-1,-1,-1,-1,-1,-1,-1,-1,-1,-1,-1,-1,-1,-1,-1,-1,-1,-1,-1,-1,-1,-1,-1,-1,-1,-1,-1,-1,-1,-1,-1,-1,-1,-1,-1,-1,-1,-1,-1,-1,-1,-1,-1,-1,-1,-1,-1,-1,-1,-1,-1,-1,-1,-1,-1,-1,-1,-1],"loss_changes":[3.4196672E3,1.9546633E3,6.9526196E2,6.084839E2,5.9663586E2,1.891617E2,2.2727466E2,1.5913055E2,1.7618726E2,1.7011108E2,1.726351E2,5.1425995E1,5.2535767E1,6.696875E1,6.3962036E1,8.768808E1,3.9324554E1,9.568176E1,4.1104614E1,8.677649E1,4.1512688E1,7.465264E1,3.238144E1,1.9100342E1,1.0293873E1,1.8196886E1,1.3038357E1,4.6579834E1,1.8227325E1,3.6901184E1,2.359967E1,4.9172318E1,2.3835487E1,2.7290863E1,1.45512085E1,3.369055E1,4.3136078E1,1.7035645E1,1.7936401E1,3.1097046E1,3.7585938E1,2.5586649E1,1.3311829E1,4.8655907E1,2.6008453E1,2.2202972E1,1.1552324E1,3.7466507E0,5.761963E0,8.153642E-1,2.296318E0,5.4207077E0,4.6152687E0,2.7154846E0,1.1982956E0,5.250244E0,4.8858643E0,6.567688E-1,2.7948303E0,3.581726E0,1.0365967E1,1.5376554E0,4.8855057E0,0E0,0E0,0E0,0E0,0E0,0E0,0E0,0E0,0E0,0E0,0E0,0E0,0E0,0E0,0E0,0E0,0E0,0E0,0E0,0E0,0E0,0E0,0E0,0E0,0E0,0E0,0E0,0E0,0E0,0E0,0E0,0E0,0E0,0E0,0E0,0E0,0E0,0E0,0E0,0E0,0E0,0E0,0E0,0E0,0E0,0E0,0E0,0E0,0E0,0E0,0E0,0E0,0E0,0E0,0E0,0E0,0E0,0E0,0E0,0E0,0E0,0E0,0E0,0E0],"parents":[2147483647,0,0,1,1,2,2,3,3,4,4,5,5,6,6,7,7,8,8,9,9,10,10,11,11,12,12,13,13,14,14,15,15,16,16,17,17,18,18,19,19,20,20,21,21,22,22,23,23,24,24,25,25,26,26,27,27,28,28,29,29,30,30,31,31,32,32,33,33,34,34,35,35,36,36,37,37,38,38,39,39,40,40,41,41,42,42,43,43,44,44,45,45,46,46,47,47,48,48,49,49,50,50,51,51,52,52,53,53,54,54,55,55,56,56,57,57,58,58,59,59,60,60,61,61,62,62],"right_children":[2,4,6,8,10,12,14,16,18,20,22,24,26,28,30,32,34,36,38,40,42,44,46,48,50,52,54,56,58,60,62,64,66,68,70,72,74,76,78,80,82,84,86,88,90,92,94,96,98,100,102,104,106,108,110,112,114,116,118,120,122,124,126,-1,-1,-1,-1,-1,-1,-1,-1,-1,-1,-1,-1,-1,-1,-1,-1,-1,-1,-1,-1,-1,-1,-1,-1,-1,-1,-1,-1,-1,-1,-1,-1,-1,-1,-1,-1,-1,-1,-1,-1,-1,-1,-1,-1,-1,-1,-1,-1,-1,-1,-1,-1,-1,-1,-1,-1,-1,-1,-1,-1,-1,-1,-1,-1],"split_conditions":[1E0,6.1E1,5.5E1,1E0,1E0,1E0,1E0,1E0,1E0,1E0,1E0,1E0,1E0,1E0,1E0,4.7E1,1E0,4E1,4E1,7.8E1,1E0,1E0,1E0,3.5E1,3.2E1,3.9E1,3.9E1,7.5E1,7.2E1,7E1,7.2E1,1E0,1E0,3.9E1,4.3E1,1E0,1E0,1E0,1E0,1E0,1E0,8.2E1,8.1E1,7.8E1,8.3E1,7.9E1,8.5E1,1E0,1E0,2.4E1,4.9E1,1E0,1E0,2.6E1,4.9E1,1E0,1E0,6.7E1,8.3E1,1E0,1E0,6.3E1,8.6E1,1.6398814E-2,1.8292916E-3,6.8763737E-4,-1.351873E-2,3.637593E-2,2.2156527E-2,1.9968014E-2,5.4033757E-3,4.1390155E-2,2.6995728E-2,2.6298437E-2,1.1053653E-2,5.9240278E-2,4.4772398E-2,4.445717E-2,3.0356368E-2,-9.191217E-3,-2.3569591E-2,-2.4397727E-2,-3.8313497E-2,6.786669E-3,-7.036678E-3,-7.5599216E-3,-2.1780126E-2,1.2505949E-2,-1.0629196E-3,-3.7513808E-3,-1.8257245E-2,3.001648E-2,1.692476E-2,1.4126721E-2,-2.1762172E-4,-1.7582303E-2,-2.6335105E-2,-3.0435158E-2,-4.028098E-2,1.642305E-3,-4.7628144E-3,-1.3784885E-2,-2.2861825E-2,3.7465596E-3,-5.4653934E-3,-8.905395E-3,-1.8211003E-2,2.431045E-2,1.4652143E-2,6.2964605E-3,-1.5231014E-4,-4.386747E-2,-5.318004E-2,-6.1564513E-2,-7.044729E-2,-2.755333E-2,-3.4201644E-2,-4.053218E-2,-4.9712863E-2,-1.9715969E-2,-2.8544271E-2,-3.6145E-2,-4.6399467E-2,-2.5901692E-3,-1.0027877E-2,-1.9791812E-2,-2.989437E-2],"split_indices":[35,4,4,3,3,3,3,36,36,36,36,36,36,36,36,4,34,4,4,4,34,34,34,4,4,4,4,4,4,4,4,34,34,4,4,34,34,34,34,34,34,4,4,4,4,4,4,37,37,4,4,37,37,4,4,37,37,4,4,37,37,4,4,0,0,0,0,0,0,0,0,0,0,0,0,0,0,0,0,0,0,0,0,0,0,0,0,0,0,0,0,0,0,0,0,0,0,0,0,0,0,0,0,0,0,0,0,0,0,0,0,0,0,0,0,0,0,0,0,0,0,0,0,0,0,0,0],"split_type":[0,0,0,0,0,0,0,0,0,0,0,0,0,0,0,0,0,0,0,0,0,0,0,0,0,0,0,0,0,0,0,0,0,0,0,0,0,0,0,0,0,0,0,0,0,0,0,0,0,0,0,0,0,0,0,0,0,0,0,0,0,0,0,0,0,0,0,0,0,0,0,0,0,0,0,0,0,0,0,0,0,0,0,0,0,0,0,0,0,0,0,0,0,0,0,0,0,0,0,0,0,0,0,0,0,0,0,0,0,0,0,0,0,0,0,0,0,0,0,0,0,0,0,0,0,0,0],"sum_hessian":[3.2032E4,2.3872E4,8.16E3,1.2119E4,1.1753E4,3.563E3,4.597E3,6.098E3,6.021E3,5.882E3,5.871E3,1.745E3,1.818E3,2.276E3,2.321E3,4.007E3,2.091E3,4.001E3,2.02E3,3.875E3,2.007E3,3.953E3,1.918E3,1.158E3,5.87E2,1.179E3,6.39E2,1.551E3,7.25E2,1.539E3,7.82E2,2.661E3,1.346E3,1.386E3,7.05E2,1.894E3,2.107E3,9.61E2,1.059E3,1.69E3,2.185E3,1.346E3,6.61E2,2.685E3,1.268E3,1.321E3,5.97E2,5.13E2,6.45E2,2.14E2,3.73E2,6.37E2,5.42E2,3.48E2,2.91E2,7.12E2,8.39E2,2.84E2,4.41E2,4.9E2,1.049E3,2.81E2,5.01E2,1.809E3,8.52E2,9.1E2,4.36E2,6.05E2,7.81E2,4.08E2,2.97E2,1.287E3,6.07E2,1.413E3,6.94E2,6.3E2,3.31E2,7.13E2,3.46E2,1.124E3,5.66E2,1.446E3,7.39E2,7.28E2,6.18E2,3.23E2,3.38E2,1.171E3,1.514E3,7.35E2,5.33E2,5.89E2,7.32E2,3.72E2,2.25E2,2.49E2,2.64E2,3.39E2,3.06E2,7.7E1,1.37E2,2.75E2,9.8E1,3.24E2,3.13E2,2.91E2,2.51E2,1.11E2,2.37E2,1.62E2,1.29E2,3.61E2,3.51E2,4.13E2,4.26E2,2.07E2,7.7E1,1.85E2,2.56E2,2.3E2,2.6E2,5.39E2,5.1E2,1.29E2,1.52E2,2.57E2,2.44E2],"tree_param":{"num_deleted":"0","num_feature":"47","num_nodes":"127","size_leaf_vector":"1"}},{"base_weights":[2.9350596E-3,3.0201802E-1,-2.3939335E-1,1.8043253E-1,6.723907E-1,-3.6567056E-1,1.2681878E-1,-3.6663927E-2,3.9315233E-1,4.636053E-1,8.871355E-1,-5.8127534E-1,-1.5436111E-1,-8.233081E-2,3.349004E-1,-1.8465523E-1,2.5710565E-1,2.3796675E-1,6.9882447E-1,3.520301E-1,6.7907035E-1,7.774247E-1,1.1146959E0,-7.2901195E-1,-2.9071996E-1,-3.0951017E-1,1.4552492E-1,-2.0030203E-1,1.5061942E-1,2.1976285E-1,5.774754E-1,-4.4986725E-1,8.823541E-2,1.3929811E-1,4.8176706E-1,-1.9033926E-2,5.1308316E-1,5.8829457E-1,9.2404807E-1,2.1225113E-1,4.9145114E-1,5.468456E-1,7.9339385E-1,6.334797E-1,9.174085E-1,9.8010904E-1,1.251089E0,-9.9409825E-1,-4.6579197E-1,-4.1332993E-1,-5.441886E-2,-5.627464E-1,-4.1855052E-2,2.3760408E-2,3.7372598E-1,-4.5032054E-2,-3.4206453E-1,3.165911E-1,-7.247899E-3,7.556344E-2,3.5926768E-1,7.5674134E-1,4.4951499E-1,-2.8236194E-2,-1.097983E-2,-9.680042E-4,1.4450905E-2,-2.815452E-4,1.4373982E-2,1.6816027E-2,3.082755E-2,-7.082313E-3,1.0758021E-2,1.970603E-2,3.745557E-2,2.2400197E-2,3.6028188E-2,3.9205994E-2,5.2452445E-2,1.8445212E-2,4.945089E-3,3.343232E-2,1.9407725E-2,3.6371093E-2,2.323289E-2,4.548712E-2,3.3858564E-2,3.9038043E-2,2.5579808E-2,5.377214E-2,4.0201787E-2,5.6216706E-2,4.3477006E-2,7.027037E-2,5.7798173E-2,-5.528543E-2,-3.793351E-2,-2.8718784E-2,-1.2481409E-2,-1.3198328E-2,-2.8684398E-2,-1.0512704E-2,5.1614274E-3,-3.408293E-2,-1.6717957E-2,-7.776838E-3,9.721997E-3,8.900394E-3,-5.800364E-3,2.6983326E-2,1.2554665E-2,-9.1213435E-3,4.6053096E-3,-2.474888E-2,-9.644651E-3,9.603363E-3,2.1774337E-2,-6.8741105E-3,6.5624937E-3,1.2087482E-2,-2.8350733E-3,2.6261041E-2,1.2510254E-2,2.9373987E-2,4.5118954E-2,1.556827E-2,2.9152328E-2],"categories":[],"categories_nodes":[],"categories_segments":[],"categories_sizes":[],"default_left":[0,0,0,0,0,0,0,0,0,0,0,0,0,0,0,0,0,0,0,0,0,0,0,0,0,0,0,0,0,0,0,0,0,0,0,0,0,0,0,0,0,0,0,0,0,0,0,0,0,0,0,0,0,0,0,0,0,0,0,0,0,0,0,0,0,0,0,0,0,0,0,0,0,0,0,0,0,0,0,0,0,0,0,0,0,0,0,0,0,0,0,0,0,0,0,0,0,0,0,0,0,0,0,0,0,0,0,0,0,0,0,0,0,0,0,0,0,0,0,0,0,0,0,0,0,0,0],"id":3,"left_children":[1,3,5,7,9,11,13,15,17,19,21,23,25,27,29,31,33,35,37,39,41,43,45,47,49,51,53,55,57,59,61,63,65,67,69,71,73,75,77,79,81,83,85,87,89,91,93,95,97,99,101,103,105,107,109,111,113,115,117,119,121,123,125,-1,-1,-1,-1,-1,-1,-1,-1,-1,-1,-1,-1,-1,-1,-1,-1,-1,-1,-1,-1,-1,-1,-1,-1,-1,-1,-1,-1,-1,-1,-1,-1,-1,-1,-1,-1,-1,-1,-1,-1,-1,-1,-1,-1,-1,-1,-1,-1,-1,-1,-1,-1,-1,-1,-1,-1,-1,-1,-1,-1,-1,-1,-1,-1],"loss_changes":[2.319604E3,6.449612E2,8.176445E2,4.9811963E2,1.5830664E2,5.98879E2,1.9734807E2,2.3216232E2,2.5826453E2,4.2961823E1,4.267395E1,2.7910547E2,3.0903113E2,6.2193146E1,6.3356842E1,2.5703934E2,4.7282005E1,2.5560876E2,4.511194E1,2.3008621E1,8.817383E0,2.319574E1,9.145325E0,3.004807E2,6.3572968E1,2.9664935E2,6.2928204E1,3.304581E1,1.994164E1,3.1012627E1,1.6428192E1,4.7509003E1,3.7832996E1,2.5235687E1,1.1848999E1,5.3727737E1,4.8729828E1,2.2556854E1,9.707031E0,1.0510891E1,1.0594528E1,3.9214249E0,3.792221E0,1.010199E1,9.813721E0,3.6309814E0,2.4416504E0,5.5602295E1,5.0696655E1,3.445865E1,1.8471535E1,6.0850525E1,5.7220333E1,3.1884571E1,1.5900078E1,1.3545418E1,1.7810585E1,5.4091377E0,7.0705748E0,1.6718966E1,1.4058426E1,6.939087E0,7.7323685E0,0E0,0E0,0E0,0E0,0E0,0E0,0E0,0E0,0E0,0E0,0E0,0E0,0E0,0E0,0E0,0E0,0E0,0E0,0E0,0E0,0E0,0E0,0E0,0E0,0E0,0E0,0E0,0E0,0E0,0E0,0E0,0E0,0E0,0E0,0E0,0E0,0E0,0E0,0E0,0E0,0E0,0E0,0E0,0E0,0E0,0E0,0E0,0E0,0E0,0E0,0E0,0E0,0E0,0E0,0E0,0E0,0E0,0E0,0E0,0E0,0E0,0E0,0E0,0E0],"parents":[2147483647,0,0,1,1,2,2,3,3,4,4,5,5,6,6,7,7,8,8,9,9,10,10,11,11,12,12,13,13,14,14,15,15,16,16,17,17,18,18,19,19,20,20,21,21,22,22,23,23,24,24,25,25,26,26,27,27,28,28,29,29,30,30,31,31,32,32,33,33,34,34,35,35,36,36,37,37,38,38,39,39,40,40,41,41,42,42,43,43,44,44,45,45,46,46,47,47,48,48,49,49,50,50,51,51,52,52,53,53,54,54,55,55,56,56,57,57,58,58,59,59,60,60,61,61,62,62],"right_children":[2,4,6,8,10,12,14,16,18,20,22,24,26,28,30,32,34,36,38,40,42,44,46,48,50,52,54,56,58,60,62,64,66,68,70,72,74,76,78,80,82,84,86,88,90,92,94,96,98,100,102,104,106,108,110,112,114,116,118,120,122,124,126,-1,-1,-1,-1,-1,-1,-1,-1,-1,-1,-1,-1,-1,-1,-1,-1,-1,-1,-1,-1,-1,-1,-1,-1,-1,-1,-1,-1,-1,-1,-1,-1,-1,-1,-1,-1,-1,-1,-1,-1,-1,-1,-1,-1,-1,-1,-1,-1,-1,-1,-1,-1,-1,-1,-1,-1,-1,-1,-1,-1,-1,-1,-1,-1],"split_conditions":[5.6E1,1E0,1E0,1E0,1E0,1E0,1E0,1E0,1E0,1E0,1E0,1E0,1E0,1E0,1E0,1E0,1E0,1E0,1E0,1E0,1E0,1E0,1E0,1E0,1E0,1E0,1E0,7.6E1,7.6E1,1E0,7.6E1,1E0,1E0,1E0,1E0,1E0,1E0,1E0,1E0,3.5E1,3.3E1,3.2E1,3.9E1,3.6E1,3.5E1,3.5E1,3.3E1,1E0,1E0,7.9E1,1E0,1E0,1E0,7.7E1,7.5E1,1E0,1E0,1E0,1E0,7.6E1,7.4E1,1E0,1E0,-2.8236194E-2,-1.097983E-2,-9.680042E-4,1.4450905E-2,-2.815452E-4,1.4373982E-2,1.6816027E-2,3.082755E-2,-7.082313E-3,1.0758021E-2,1.970603E-2,3.745557E-2,2.2400197E-2,3.6028188E-2,3.9205994E-2,5.2452445E-2,1.8445212E-2,4.945089E-3,3.343232E-2,1.9407725E-2,3.6371093E-2,2.323289E-2,4.548712E-2,3.3858564E-2,3.9038043E-2,2.5579808E-2,5.377214E-2,4.0201787E-2,5.6216706E-2,4.3477006E-2,7.027037E-2,5.7798173E-2,-5.528543E-2,-3.793351E-2,-2.8718784E-2,-1.2481409E-2,-1.3198328E-2,-2.8684398E-2,-1.0512704E-2,5.1614274E-3,-3.408293E-2,-1.6717957E-2,-7.776838E-3,9.721997E-3,8.900394E-3,-5.800364E-3,2.6983326E-2,1.2554665E-2,-9.1213435E-3,4.6053096E-3,-2.474888E-2,-9.644651E-3,9.603363E-3,2.1774337E-2,-6.8741105E-3,6.5624937E-3,1.2087482E-2,-2.8350733E-3,2.6261041E-2,1.2510254E-2,2.9373987E-2,4.5118954E-2,1.556827E-2,2.9152328E-2],"split_indices":[4,32,32,3,3,3,3,33,33,36,36,33,33,36,36,34,36,34,36,6,6,6,6,34,36,34,36,4,4,6,4,36,36,6,6,36,36,6,6,4,4,4,4,4,4,4,4,36,36,4,6,36,36,4,4,6,6,6,6,4,4,6,6,0,0,0,0,0,0,0,0,0,0,0,0,0,0,0,0,0,0,0,0,0,0,0,0,0,0,0,0,0,0,0,0,0,0,0,0,0,0,0,0,0,0,0,0,0,0,0,0,0,0,0,0,0,0,0,0,0,0,0,0,0,0,0,0],"split_type":[0,0,0,0,0,0,0,0,0,0,0,0,0,0,0,0,0,0,0,0,0,0,0,0,0,0,0,0,0,0,0,0,0,0,0,0,0,0,0,0,0,0,0,0,0,0,0,0,0,0,0,0,0,0,0,0,0,0,0,0,0,0,0,0,0,0,0,0,0,0,0,0,0,0,0,0,0,0,0,0,0,0,0,0,0,0,0,0,0,0,0,0,0,0,0,0,0,0,0,0,0,0,0,0,0,0,0,0,0,0,0,0,0,0,0,0,0,0,0,0,0,0,0,0,0,0,0],"sum_hessian":[3.2003E4,1.4324E4,1.7679E4,1.0785E4,3.539E3,1.3146E4,4.533E3,5.338E3,5.447E3,1.796E3,1.743E3,6.506E3,6.64E3,2.261E3,2.272E3,3.55E3,1.788E3,3.614E3,1.833E3,1.185E3,6.11E2,1.179E3,5.64E2,4.312E3,2.194E3,4.376E3,2.264E3,1.501E3,7.6E2,1.542E3,7.3E2,1.8E3,1.75E3,1.174E3,6.14E2,1.869E3,1.745E3,1.232E3,6.01E2,5.93E2,5.92E2,2.86E2,3.25E2,5.84E2,5.95E2,2.88E2,2.76E2,2.147E3,2.165E3,1.444E3,7.5E2,2.248E3,2.128E3,1.477E3,7.87E2,7.17E2,7.84E2,3.7E2,3.9E2,7.59E2,7.83E2,3.02E2,4.28E2,1.2E3,6E2,1.14E3,6.1E2,5.94E2,5.8E2,2.97E2,3.17E2,1.227E3,6.42E2,1.162E3,5.83E2,6E2,6.32E2,2.87E2,3.14E2,2.48E2,3.45E2,2.16E2,3.76E2,8.7E1,1.99E2,1.59E2,1.66E2,2.62E2,3.22E2,2.45E2,3.5E2,1.21E2,1.67E2,1E2,1.76E2,1.454E3,6.93E2,1.44E3,7.25E2,7.49E2,6.95E2,3.77E2,3.73E2,1.477E3,7.71E2,1.437E3,6.91E2,7.02E2,7.75E2,3.33E2,4.54E2,3.58E2,3.59E2,3.86E2,3.98E2,1.82E2,1.88E2,2.01E2,1.89E2,3.36E2,4.23E2,3.09E2,4.74E2,1.42E2,1.6E2,2.12E2,2.16E2],"tree_param":{"num_deleted":"0","num_feature":"47","num_nodes":"127","size_leaf_vector":"1"}},{"base_weights":[-3.547141E-3,1.6985427E-1,-5.052098E-1,4.1492724E-1,-1.0835132E-1,-2.584946E-1,-7.839107E-1,2.1063659E-1,6.210976E-1,-3.148901E-1,9.6326485E-2,-4.713013E-1,-5.1338248E-2,-1.0010067E0,-5.7662064E-1,1.0263642E-1,4.213271E-1,5.091998E-1,8.399262E-1,-4.2917448E-1,-8.878742E-2,-6.6133654E-3,3.148335E-1,-5.7963103E-1,-2.5519004E-1,-1.6895464E-1,1.6945007E-1,-1.105335E0,-7.8359765E-1,-6.843784E-1,-3.6554536E-1,2.3518808E-1,-5.8054537E-2,5.712608E-1,3.0595067E-1,6.428252E-1,3.442729E-1,9.576966E-1,6.8189293E-1,-5.257217E-1,-2.436842E-1,-2.3355347E-1,5.79484E-2,-1.4423813E-1,1.2563165E-1,1.9133751E-1,4.335262E-1,-7.225755E-1,-4.340693E-1,-9.708865E-2,-3.9680973E-1,-4.225857E-2,-3.1182197E-1,3.2896715E-1,3.2916404E-2,-9.610633E-1,-1.2351663E0,-9.151602E-1,-6.4240646E-1,-5.6217724E-1,-8.184459E-1,-4.9800676E-1,-2.1869548E-1,4.932697E-3,1.8074406E-2,-9.746718E-3,4.0530893E-3,3.3223927E-2,1.978107E-2,8.535212E-3,2.2433184E-2,2.527374E-2,3.9016664E-2,1.0285686E-2,2.4005802E-2,4.1261084E-2,5.4333504E-2,2.9057348E-2,4.439291E-2,-3.2696422E-2,-1.9666005E-2,-1.8872848E-2,-5.5290516E-3,-1.7184136E-2,-1.3194516E-3,8.949063E-3,-4.179025E-3,-1.1959257E-2,1.6114794E-3,1.623955E-3,1.5068451E-2,4.810358E-3,1.80144E-2,1.7390031E-2,3.1075185E-2,-2.9700039E-2,-4.389034E-2,-1.3813527E-2,-2.7500633E-2,-1.0917161E-2,9.258515E-4,-2.5656084E-2,-1.3372662E-2,-8.862863E-3,4.6425085E-3,-2.1848796E-2,-9.100064E-3,9.436773E-3,2.3061365E-2,-4.428606E-3,8.103027E-3,-5.4842222E-2,-4.119582E-2,-6.769981E-2,-5.504341E-2,-3.8166303E-2,-4.997037E-2,-2.6817445E-2,-3.8848568E-2,-3.3611204E-2,-2.152506E-2,-4.7634743E-2,-3.4601487E-2,-1.754155E-2,-3.0941298E-2,-4.7185305E-3,-1.6058413E-2],"categories":[],"categories_nodes":[],"categories_segments":[],"categories_sizes":[],"default_left":[0,0,0,0,0,0,0,0,0,0,0,0,0,0,0,0,0,0,0,0,0,0,0,0,0,0,0,0,0,0,0,0,0,0,0,0,0,0,0,0,0,0,0,0,0,0,0,0,0,0,0,0,0,0,0,0,0,0,0,0,0,0,0,0,0,0,0,0,0,0,0,0,0,0,0,0,0,0,0,0,0,0,0,0,0,0,0,0,0,0,0,0,0,0,0,0,0,0,0,0,0,0,0,0,0,0,0,0,0,0,0,0,0,0,0,0,0,0,0,0,0,0,0,0,0,0,0],"id":4,"left_children":[1,3,5,7,9,11,13,15,17,19,21,23,25,27,29,31,33,35,37,39,41,43,45,47,49,51,53,55,57,59,61,63,65,67,69,71,73,75,77,79,81,83,85,87,89,91,93,95,97,99,101,103,105,107,109,111,113,115,117,119,121,123,125,-1,-1,-1,-1,-1,-1,-1,-1,-1,-1,-1,-1,-1,-1,-1,-1,-1,-1,-1,-1,-1,-1,-1,-1,-1,-1,-1,-1,-1,-1,-1,-1,-1,-1,-1,-1,-1,-1,-1,-1,-1,-1,-1,-1,-1,-1,-1,-1,-1,-1,-1,-1,-1,-1,-1,-1,-1,-1,-1,-1,-1,-1,-1,-1],"loss_changes":[2.787127E3,1.6234268E3,5.656902E2,5.3304956E2,4.7146887E2,1.9249179E2,1.7330981E2,1.4467612E2,1.5383667E2,1.4339984E2,1.260083E2,5.027997E1,5.7522503E1,4.1911865E1,4.4762207E1,8.9600845E1,3.7104156E1,9.170093E1,3.8989746E1,6.590082E1,3.9630547E1,6.934263E1,2.6213638E1,2.9523926E1,1.6104858E1,2.6142376E1,1.6759352E1,2.2638672E1,1.0836029E1,2.0985474E1,1.2943344E1,3.971237E1,3.62341E1,1.5061981E1,2.3471153E1,4.3101868E1,3.508014E1,1.9913696E1,1.8428925E1,4.088965E1,2.2464508E1,2.1414082E1,1.5894141E1,3.1289444E1,3.1797863E1,1.4125053E1,1.4512482E1,1.3888855E1,1.2892899E1,4.7981014E0,5.5801277E0,1.4006158E1,1.0952576E1,6.497158E0,6.5411983E0,1.039978E1,9.137939E0,3.2792664E0,3.8647537E0,9.6800995E0,9.89679E0,6.042038E0,4.046464E0,0E0,0E0,0E0,0E0,0E0,0E0,0E0,0E0,0E0,0E0,0E0,0E0,0E0,0E0,0E0,0E0,0E0,0E0,0E0,0E0,0E0,0E0,0E0,0E0,0E0,0E0,0E0,0E0,0E0,0E0,0E0,0E0,0E0,0E0,0E0,0E0,0E0,0E0,0E0,0E0,0E0,0E0,0E0,0E0,0E0,0E0,0E0,0E0,0E0,0E0,0E0,0E0,0E0,0E0,0E0,0E0,0E0,0E0,0E0,0E0,0E0,0E0,0E0,0E0],"parents":[2147483647,0,0,1,1,2,2,3,3,4,4,5,5,6,6,7,7,8,8,9,9,10,10,11,11,12,12,13,13,14,14,15,15,16,16,17,17,18,18,19,19,20,20,21,21,22,22,23,23,24,24,25,25,26,26,27,27,28,28,29,29,30,30,31,31,32,32,33,33,34,34,35,35,36,36,37,37,38,38,39,39,40,40,41,41,42,42,43,43,44,44,45,45,46,46,47,47,48,48,49,49,50,50,51,51,52,52,53,53,54,54,55,55,56,56,57,57,58,58,59,59,60,60,61,61,62,62],"right_children":[2,4,6,8,10,12,14,16,18,20,22,24,26,28,30,32,34,36,38,40,42,44,46,48,50,52,54,56,58,60,62,64,66,68,70,72,74,76,78,80,82,84,86,88,90,92,94,96,98,100,102,104,106,108,110,112,114,116,118,120,122,124,126,-1,-1,-1,-1,-1,-1,-1,-1,-1,-1,-1,-1,-1,-1,-1,-1,-1,-1,-1,-1,-1,-1,-1,-1,-1,-1,-1,-1,-1,-1,-1,-1,-1,-1,-1,-1,-1,-1,-1,-1,-1,-1,-1,-1,-1,-1,-1,-1,-1,-1,-1,-1,-1,-1,-1,-1,-1,-1,-1,-1,-1,-1,-1,-1],"split_conditions":[1E0,6.3E1,6.2E1,1E0,1E0,1E0,1E0,1E0,1E0,1E0,1E0,1E0,1E0,1E0,1E0,4.4E1,3.9E1,4.4E1,4.5E1,1E0,1E0,1E0,1E0,1E0,4E1,4.3E1,3.9E1,8E1,1E0,8.2E1,1E0,1E0,1E0,1E0,1E0,1E0,1E0,1E0,1E0,1E0,1E0,1E0,8.2E1,1E0,1E0,1E0,1E0,4.4E1,3.8E1,1E0,1E0,1E0,1E0,1E0,1E0,1E0,1E0,7.7E1,8.3E1,1E0,1E0,8E1,7.8E1,4.932697E-3,1.8074406E-2,-9.746718E-3,4.0530893E-3,3.3223927E-2,1.978107E-2,8.535212E-3,2.2433184E-2,2.527374E-2,3.9016664E-2,1.0285686E-2,2.4005802E-2,4.1261084E-2,5.4333504E-2,2.9057348E-2,4.439291E-2,-3.2696422E-2,-1.9666005E-2,-1.8872848E-2,-5.5290516E-3,-1.7184136E-2,-1.3194516E-3,8.949063E-3,-4.179025E-3,-1.1959257E-2,1.6114794E-3,1.623955E-3,1.5068451E-2,4.810358E-3,1.80144E-2,1.7390031E-2,3.1075185E-2,-2.9700039E-2,-4.389034E-2,-1.3813527E-2,-2.7500633E-2,-1.0917161E-2,9.258515E-4,-2.5656084E-2,-1.3372662E-2,-8.862863E-3,4.6425085E-3,-2.1848796E-2,-9.100064E-3,9.436773E-3,2.3061365E-2,-4.428606E-3,8.103027E-3,-5.4842222E-2,-4.119582E-2,-6.769981E-2,-5.504341E-2,-3.8166303E-2,-4.997037E-2,-2.6817445E-2,-3.8848568E-2,-3.3611204E-2,-2.152506E-2,-4.7634743E-2,-3.4601487E-2,-1.754155E-2,-3.0941298E-2,-4.7185305E-3,-1.6058413E-2],"split_indices":[35,4,4,3,3,3,3,36,36,36,36,36,36,36,36,4,4,4,4,32,6,6,6,6,4,4,4,4,6,4,6,6,6,34,6,6,6,6,32,6,6,32,4,32,32,32,32,4,4,6,6,6,6,6,6,6,6,4,4,6,6,4,4,0,0,0,0,0,0,0,0,0,0,0,0,0,0,0,0,0,0,0,0,0,0,0,0,0,0,0,0,0,0,0,0,0,0,0,0,0,0,0,0,0,0,0,0,0,0,0,0,0,0,0,0,0,0,0,0,0,0,0,0,0,0,0,0],"split_type":[0,0,0,0,0,0,0,0,0,0,0,0,0,0,0,0,0,0,0,0,0,0,0,0,0,0,0,0,0,0,0,0,0,0,0,0,0,0,0,0,0,0,0,0,0,0,0,0,0,0,0,0,0,0,0,0,0,0,0,0,0,0,0,0,0,0,0,0,0,0,0,0,0,0,0,0,0,0,0,0,0,0,0,0,0,0,0,0,0,0,0,0,0,0,0,0,0,0,0,0,0,0,0,0,0,0,0,0,0,0,0,0,0,0,0,0,0,0,0,0,0,0,0,0,0,0,0],"sum_hessian":[3.2038E4,2.3809E4,8.229E3,1.2658E4,1.1151E4,4.366E3,3.863E3,6.359E3,6.299E3,5.55E3,5.601E3,2.153E3,2.213E3,1.885E3,1.978E3,4.205E3,2.154E3,4.17E3,2.129E3,3.686E3,1.864E3,3.808E3,1.793E3,1.433E3,7.2E2,1.444E3,7.69E2,1.271E3,6.14E2,1.308E3,6.7E2,2.304E3,1.901E3,9.35E2,1.219E3,2.302E3,1.868E3,1.217E3,9.12E2,2.423E3,1.263E3,9.38E2,9.26E2,1.866E3,1.942E3,8.8E2,9.13E2,7.21E2,7.12E2,3.41E2,3.79E2,7.66E2,6.78E2,3.54E2,4.15E2,6.06E2,6.65E2,3.15E2,2.99E2,6.87E2,6.21E2,3.51E2,3.19E2,1.108E3,1.196E3,9.58E2,9.43E2,6.09E2,3.26E2,6.27E2,5.92E2,1.154E3,1.148E3,9.26E2,9.42E2,6.04E2,6.13E2,6.15E2,2.97E2,1.229E3,1.194E3,6.29E2,6.34E2,6.12E2,3.26E2,4.99E2,4.27E2,1.213E3,6.53E2,1.27E3,6.72E2,5.64E2,3.16E2,6.29E2,2.84E2,3.97E2,3.24E2,3.03E2,4.09E2,1.66E2,1.75E2,1.98E2,1.81E2,3.83E2,3.83E2,3.44E2,3.34E2,1.73E2,1.81E2,2.14E2,2.01E2,3.01E2,3.05E2,3.48E2,3.17E2,1.16E2,1.99E2,1.7E2,1.29E2,3.72E2,3.15E2,2.98E2,3.23E2,1.6E2,1.91E2,1.45E2,1.74E2],"tree_param":{"num_deleted":"0","num_feature":"47","num_nodes":"127","size_leaf_vector":"1"}},{"base_weights":[-1.0447495E-3,1.6358943E-1,-4.7900447E-1,4.098514E-1,-8.918959E-2,-2.651684E-1,-7.707689E-1,2.1724668E-1,6.0032856E-1,-2.8481668E-1,1.0446952E-1,-4.6177703E-1,-7.2872974E-2,-9.7831154E-1,-5.7653373E-1,3.1702414E-1,2.0199621E-2,6.9327545E-1,4.0678534E-1,-1.7940286E-1,-4.859769E-1,2.083823E-1,-9.24823E-2,-3.2164082E-1,-6.1541355E-1,1.0440238E-1,-1.9892281E-1,-8.8337773E-1,-1.1624455E0,-4.7865224E-1,-7.776509E-1,4.5437267E-1,1.9944128E-1,2.0281023E-1,-8.5141025E-2,8.4243995E-1,5.823579E-1,5.812096E-1,3.0080742E-1,-5.320747E-2,-3.2147405E-1,-3.5088724E-1,-6.3217056E-1,2.92376E-1,3.0504625E-2,5.4205984E-2,-2.0311111E-1,-2.3513536E-1,-5.016682E-1,-5.1501644E-1,-8.0750066E-1,1.8629235E-1,-8.950725E-2,-1.1182414E-1,-3.819295E-1,-7.5628394E-1,-9.890191E-1,-5.1903076E-2,-6.2848374E-2,-3.8071215E-1,-6.2824917E-1,-6.967359E-1,-4.5283306E-2,2.7072156E-2,1.4108363E-2,1.4394333E-2,9.323065E-4,1.4169044E-2,1.5838208E-3,1.07859805E-5,-1.3279617E-2,4.628461E-2,3.385247E-2,3.3154693E-2,2.0898106E-2,3.31246E-2,2.0043856E-2,1.9571705E-2,5.6930156E-3,1.216797E-3,-1.0848684E-2,-1.1528338E-2,-2.4923176E-2,-1.37166185E-2,-2.521543E-2,-2.7906666E-2,-3.8625985E-2,1.9766597E-2,8.228529E-3,7.7197924E-3,-5.9813694E-3,6.63144E-3,-5.8046584E-3,-5.951719E-3,-1.9219259E-2,-5.73331E-3,-1.8032534E-2,-1.4137234E-2,-2.6871666E-2,-2.0691907E-2,-3.0685782E-2,-3.679293E-2,-4.2387765E-2,1.4899062E-2,3.221972E-3,1.5769966E-3,-7.114441E-3,-1.8498427E-4,-1.1019803E-2,-1.4352857E-2,-2.2512866E-2,-3.260249E-2,-4.248987E-2,-4.3180134E-2,-5.502948E-2,-1.3784614E-2,-2.4349714E-2,-2.5948746E-2,-3.6459744E-2,-3.0135185E-2,-3.6626503E-2],"categories":[],"categories_nodes":[],"categories_segments":[],"categories_sizes":[],"default_left":[0,0,0,0,0,0,0,0,0,0,0,0,0,0,0,0,0,0,0,0,0,0,0,0,0,0,0,0,0,0,0,0,0,0,0,0,0,0,0,0,0,0,0,0,0,0,0,0,0,0,0,0,0,0,0,0,0,0,0,0,0,0,0,0,0,0,0,0,0,0,0,0,0,0,0,0,0,0,0,0,0,0,0,0,0,0,0,0,0,0,0,0,0,0,0,0,0,0,0,0,0,0,0,0,0,0,0,0,0,0,0,0,0,0,0,0,0,0,0,0,0],"id":5,"left_children":[1,3,5,7,9,11,13,15,17,19,21,23,25,27,29,31,33,35,37,39,41,43,45,47,49,51,53,55,57,59,61,63,65,67,69,71,73,75,77,79,81,83,85,87,89,91,93,95,97,99,101,103,105,107,109,111,113,-1,-1,115,117,119,-1,-1,-1,-1,-1,-1,-1,-1,-1,-1,-1,-1,-1,-1,-1,-1,-1,-1,-1,-1,-1,-1,-1,-1,-1,-1,-1,-1,-1,-1,-1,-1,-1,-1,-1,-1,-1,-1,-1,-1,-1,-1,-1,-1,-1,-1,-1,-1,-1,-1,-1,-1,-1,-1,-1,-1,-1,-1,-1],"loss_changes":[2.5246418E3,1.4855671E3,5.126394E2,4.4333997E2,4.4620105E2,1.7936032E2,1.3956079E2,1.1819467E2,1.09038574E2,1.2415329E2,1.21156395E2,5.0311554E1,5.3650043E1,2.8322998E1,3.5022522E1,6.436337E1,3.89131E1,6.740979E1,3.631479E1,6.89368E1,3.955316E1,5.7885925E1,3.319717E1,1.9021683E1,2.1144745E1,1.5864169E1,2.2320595E1,1.418219E1,5.373169E0,1.7518494E1,5.4493103E0,2.7436157E1,3.4406166E1,1.0194412E1,1.9761768E1,2.3441772E1,3.100647E1,1.0654526E1,2.0794579E1,2.5885822E1,2.8991196E1,1.2182312E1,9.606628E0,3.4567642E1,2.3156921E1,1.1768096E1,1.7725166E1,1.2539089E1,2.964325E0,7.1058655E0,4.7782898E-1,9.534748E0,1.9020388E0,1.1174978E1,2.8008041E0,4.407257E0,7.5011597E0,0E0,0E0,8.069618E0,4.894272E0,7.836609E-1,0E0,0E0,0E0,0E0,0E0,0E0,0E0,0E0,0E0,0E0,0E0,0E0,0E0,0E0,0E0,0E0,0E0,0E0,0E0,0E0,0E0,0E0,0E0,0E0,0E0,0E0,0E0,0E0,0E0,0E0,0E0,0E0,0E0,0E0,0E0,0E0,0E0,0E0,0E0,0E0,0E0,0E0,0E0,0E0,0E0,0E0,0E0,0E0,0E0,0E0,0E0,0E0,0E0,0E0,0E0,0E0,0E0,0E0,0E0],"parents":[2147483647,0,0,1,1,2,2,3,3,4,4,5,5,6,6,7,7,8,8,9,9,10,10,11,11,12,12,13,13,14,14,15,15,16,16,17,17,18,18,19,19,20,20,21,21,22,22,23,23,24,24,25,25,26,26,27,27,28,28,29,29,30,30,31,31,32,32,33,33,34,34,35,35,36,36,37,37,38,38,39,39,40,40,41,41,42,42,43,43,44,44,45,45,46,46,47,47,48,48,49,49,50,50,51,51,52,52,53,53,54,54,55,55,56,56,59,59,60,60,61,61],"right_children":[2,4,6,8,10,12,14,16,18,20,22,24,26,28,30,32,34,36,38,40,42,44,46,48,50,52,54,56,58,60,62,64,66,68,70,72,74,76,78,80,82,84,86,88,90,92,94,96,98,100,102,104,106,108,110,112,114,-1,-1,116,118,120,-1,-1,-1,-1,-1,-1,-1,-1,-1,-1,-1,-1,-1,-1,-1,-1,-1,-1,-1,-1,-1,-1,-1,-1,-1,-1,-1,-1,-1,-1,-1,-1,-1,-1,-1,-1,-1,-1,-1,-1,-1,-1,-1,-1,-1,-1,-1,-1,-1,-1,-1,-1,-1,-1,-1,-1,-1,-1,-1],"split_conditions":[1E0,6.1E1,6.6E1,1E0,1E0,1E0,1E0,1E0,1E0,1E0,1E0,4.4E1,3.9E1,1E0,1E0,3.9E1,3.5E1,3.8E1,3.6E1,8.2E1,8.1E1,1E0,7.8E1,1E0,1E0,1E0,1E0,8.1E1,8.1E1,8.6E1,8.7E1,1E0,1E0,1E0,1E0,1E0,1E0,1E0,1E0,1E0,1E0,1E0,1E0,8.3E1,8.2E1,1E0,1E0,1E0,2.3E1,1E0,5.2E1,1E0,2.6E1,1E0,5.1E1,1E0,1E0,-5.1903076E-2,-6.2848374E-2,1E0,1E0,7.2E1,-4.5283306E-2,2.7072156E-2,1.4108363E-2,1.4394333E-2,9.323065E-4,1.4169044E-2,1.5838208E-3,1.07859805E-5,-1.3279617E-2,4.628461E-2,3.385247E-2,3.3154693E-2,2.0898106E-2,3.31246E-2,2.0043856E-2,1.9571705E-2,5.6930156E-3,1.216797E-3,-1.0848684E-2,-1.1528338E-2,-2.4923176E-2,-1.37166185E-2,-2.521543E-2,-2.7906666E-2,-3.8625985E-2,1.9766597E-2,8.228529E-3,7.7197924E-3,-5.9813694E-3,6.63144E-3,-5.8046584E-3,-5.951719E-3,-1.9219259E-2,-5.73331E-3,-1.8032534E-2,-1.4137234E-2,-2.6871666E-2,-2.0691907E-2,-3.0685782E-2,-3.679293E-2,-4.2387765E-2,1.4899062E-2,3.221972E-3,1.5769966E-3,-7.114441E-3,-1.8498427E-4,-1.1019803E-2,-1.4352857E-2,-2.2512866E-2,-3.260249E-2,-4.248987E-2,-4.3180134E-2,-5.502948E-2,-1.3784614E-2,-2.4349714E-2,-2.5948746E-2,-3.6459744E-2,-3.0135185E-2,-3.6626503E-2],"split_indices":[35,4,4,3,3,3,3,37,37,37,37,4,4,37,37,4,4,4,4,4,4,34,4,37,37,37,37,4,4,4,4,34,34,34,34,34,34,34,34,34,34,34,34,4,4,34,34,38,4,38,4,38,4,38,4,38,38,0,0,38,38,4,0,0,0,0,0,0,0,0,0,0,0,0,0,0,0,0,0,0,0,0,0,0,0,0,0,0,0,0,0,0,0,0,0,0,0,0,0,0,0,0,0,0,0,0,0,0,0,0,0,0,0,0,0,0,0,0,0,0,0],"split_type":[0,0,0,0,0,0,0,0,0,0,0,0,0,0,0,0,0,0,0,0,0,0,0,0,0,0,0,0,0,0,0,0,0,0,0,0,0,0,0,0,0,0,0,0,0,0,0,0,0,0,0,0,0,0,0,0,0,0,0,0,0,0,0,0,0,0,0,0,0,0,0,0,0,0,0,0,0,0,0,0,0,0,0,0,0,0,0,0,0,0,0,0,0,0,0,0,0,0,0,0,0,0,0,0,0,0,0,0,0,0,0,0,0,0,0,0,0,0,0,0,0],"sum_hessian":[3.2082E4,2.3863E4,8.219E3,1.2087E4,1.1776E4,4.744E3,3.475E3,6.011E3,6.076E3,5.858E3,5.918E3,2.345E3,2.399E3,1.678E3,1.797E3,3.99E3,2.021E3,4.103E3,1.973E3,3.845E3,2.013E3,3.874E3,2.044E3,1.228E3,1.117E3,9.97E2,1.402E3,1.111E3,5.67E2,1.211E3,5.86E2,1.839E3,2.151E3,7.39E2,1.282E3,1.747E3,2.356E3,7.44E2,1.229E3,2.037E3,1.808E3,1.048E3,9.65E2,2.631E3,1.243E3,8.79E2,1.165E3,8.31E2,3.97E2,7.36E2,3.81E2,7.01E2,2.96E2,9.51E2,4.51E2,5.08E2,6.03E2,2.5E2,3.17E2,7.34E2,4.77E2,3.63E2,2.23E2,1.22E3,6.19E2,1.444E3,7.07E2,5.02E2,2.37E2,8.71E2,4.11E2,1.159E3,5.88E2,1.578E3,7.78E2,5.11E2,2.33E2,8.27E2,4.02E2,1.383E3,6.54E2,1.196E3,6.12E2,7.01E2,3.47E2,6.35E2,3.3E2,1.456E3,1.175E3,6.81E2,5.62E2,6.02E2,2.77E2,7.97E2,3.68E2,4.25E2,4.06E2,5.7E1,3.4E2,3.66E2,3.7E2,1.44E2,2.37E2,3.65E2,3.36E2,9E1,2.06E2,4.77E2,4.74E2,1.91E2,2.6E2,2.44E2,2.64E2,2.88E2,3.15E2,3.71E2,3.63E2,2.32E2,2.45E2,1.05E2,2.58E2],"tree_param":{"num_deleted":"0","num_feature":"47","num_nodes":"121","size_leaf_vector":"1"}},{"base_weights":[-1.4561854E-4,2.1169446E-1,-2.5710592E-1,1.1260706E-1,4.0473542E-1,-3.5656255E-1,-5.4533996E-2,2.2526883E-1,-4.944231E-2,2.6633307E-1,5.4417276E-1,-4.9062738E-1,-2.2278424E-1,-1.8555647E-1,7.6235704E-2,9.757091E-2,3.4997475E-1,-1.7945449E-1,8.319562E-2,3.9478678E-1,9.8958775E-2,6.3177544E-1,4.077177E-1,-3.7514564E-1,-5.9398246E-1,-1.2784019E-1,-3.712458E-1,-5.28315E-2,-2.9047355E-1,2.0054658E-1,-7.907327E-4,4.3398533E-2,2.5574914E-1,2.9820463E-1,4.9615285E-1,-8.7893724E-2,-2.7086532E-1,3.227449E-2,2.2870326E-1,5.2814996E-1,3.2751557E-1,4.98651E-2,2.4106194E-1,5.8141464E-1,7.7720237E-1,3.6414564E-1,5.320944E-1,-4.2235482E-1,-2.2887775E-1,-5.167704E-1,-6.6799563E-1,-3.155067E-2,-2.1946302E-1,-4.24693E-1,-2.1325353E-1,-9.306946E-2,7.530682E-2,-3.3339384E-1,-1.5587866E-1,1.4560145E-1,3.4721893E-1,-5.6422304E-2,1.4145559E-1,5.6144046E-3,-2.4034395E-3,1.7818136E-2,7.820045E-3,2.0194676E-2,1.1328827E-2,2.9005049E-2,2.0294135E-2,-6.4674444E-3,2.3536873E-3,-1.5831726E-2,-6.298451E-3,5.5801277E-3,-2.4188936E-3,1.5533434E-2,7.4192523E-3,2.4201024E-2,3.3157237E-2,1.3866663E-2,2.4280647E-2,9.132491E-3,7.2997547E-4,1.6847355E-2,1.0254974E-2,3.375972E-2,2.5189577E-2,4.269211E-2,3.5736214E-2,2.080505E-2,1.5838344E-2,2.7365327E-2,2.2384433E-2,-1.768262E-2,-2.4171045E-2,-6.708637E-3,-1.6634565E-2,-2.8091883E-2,-1.8764686E-2,-3.5556946E-2,-2.7397746E-2,-3.6980107E-3,5.544605E-3,-1.3199118E-2,-4.462458E-3,-1.6940339E-2,-2.5621984E-2,-5.0758845E-3,-1.5933597E-2,-1.0833744E-3,-8.185258E-3,3.0482232E-3,1.1091331E-2,-1.50648495E-2,-2.3778476E-2,-5.5205044E-3,-1.18381E-2,7.641427E-3,-3.5958157E-3,1.873209E-2,1.3147647E-2,2.4686425E-4,-6.3252114E-3,9.8722195E-3,2.349375E-3],"categories":[],"categories_nodes":[],"categories_segments":[],"categories_sizes":[],"default_left":[0,0,0,0,0,0,0,0,0,0,0,0,0,0,0,0,0,0,0,0,0,0,0,0,0,0,0,0,0,0,0,0,0,0,0,0,0,0,0,0,0,0,0,0,0,0,0,0,0,0,0,0,0,0,0,0,0,0,0,0,0,0,0,0,0,0,0,0,0,0,0,0,0,0,0,0,0,0,0,0,0,0,0,0,0,0,0,0,0,0,0,0,0,0,0,0,0,0,0,0,0,0,0,0,0,0,0,0,0,0,0,0,0,0,0,0,0,0,0,0,0,0,0,0,0,0,0],"id":6,"left_children":[1,3,5,7,9,11,13,15,17,19,21,23,25,27,29,31,33,35,37,39,41,43,45,47,49,51,53,55,57,59,61,63,65,67,69,71,73,75,77,79,81,83,85,87,89,91,93,95,97,99,101,103,105,107,109,111,113,115,117,119,121,123,125,-1,-1,-1,-1,-1,-1,-1,-1,-1,-1,-1,-1,-1,-1,-1,-1,-1,-1,-1,-1,-1,-1,-1,-1,-1,-1,-1,-1,-1,-1,-1,-1,-1,-1,-1,-1,-1,-1,-1,-1,-1,-1,-1,-1,-1,-1,-1,-1,-1,-1,-1,-1,-1,-1,-1,-1,-1,-1,-1,-1,-1,-1,-1,-1],"loss_changes":[1.7357524E3,3.342724E2,2.9028046E2,2.1089508E2,1.1425641E2,1.7321423E2,8.1331024E1,1.08476654E2,8.17196E1,6.3966003E1,3.503003E1,5.737854E1,6.816087E1,3.300109E1,2.275089E1,2.884893E1,2.5937775E1,2.0004753E1,1.7375103E1,1.4935028E1,9.015398E0,1.2701721E1,6.0764313E0,1.566098E1,1.4198669E1,2.6045383E1,1.58437195E1,5.410522E0,7.5965805E0,7.275009E0,1.1624832E1,1.5821266E1,8.53064E0,1.9197586E1,6.5847473E0,6.7034216E0,7.898361E0,1.1131514E1,3.9565544E0,3.0329437E0,8.766922E0,4.5068045E0,1.0757179E0,9.39978E0,1.587616E0,1.9851532E0,1.3760376E-1,7.061859E0,5.4512615E0,7.759094E0,6.3222656E0,8.713186E0,8.74736E0,1.0444916E1,5.6097946E0,4.0211887E0,5.139377E-1,4.4338074E0,1.1580625E0,1.0532398E0,4.7225952E-1,4.541633E0,2.1751423E0,0E0,0E0,0E0,0E0,0E0,0E0,0E0,0E0,0E0,0E0,0E0,0E0,0E0,0E0,0E0,0E0,0E0,0E0,0E0,0E0,0E0,0E0,0E0,0E0,0E0,0E0,0E0,0E0,0E0,0E0,0E0,0E0,0E0,0E0,0E0,0E0,0E0,0E0,0E0,0E0,0E0,0E0,0E0,0E0,0E0,0E0,0E0,0E0,0E0,0E0,0E0,0E0,0E0,0E0,0E0,0E0,0E0,0E0,0E0,0E0,0E0,0E0,0E0,0E0],"parents":[2147483647,0,0,1,1,2,2,3,3,4,4,5,5,6,6,7,7,8,8,9,9,10,10,11,11,12,12,13,13,14,14,15,15,16,16,17,17,18,18,19,19,20,20,21,21,22,22,23,23,24,24,25,25,26,26,27,27,28,28,29,29,30,30,31,31,32,32,33,33,34,34,35,35,36,36,37,37,38,38,39,39,40,40,41,41,42,42,43,43,44,44,45,45,46,46,47,47,48,48,49,49,50,50,51,51,52,52,53,53,54,54,55,55,56,56,57,57,58,58,59,59,60,60,61,61,62,62],"right_children":[2,4,6,8,10,12,14,16,18,20,22,24,26,28,30,32,34,36,38,40,42,44,46,48,50,52,54,56,58,60,62,64,66,68,70,72,74,76,78,80,82,84,86,88,90,92,94,96,98,100,102,104,106,108,110,112,114,116,118,120,122,124,126,-1,-1,-1,-1,-1,-1,-1,-1,-1,-1,-1,-1,-1,-1,-1,-1,-1,-1,-1,-1,-1,-1,-1,-1,-1,-1,-1,-1,-1,-1,-1,-1,-1,-1,-1,-1,-1,-1,-1,-1,-1,-1,-1,-1,-1,-1,-1,-1,-1,-1,-1,-1,-1,-1,-1,-1,-1,-1,-1,-1,-1,-1,-1,-1],"split_conditions":[6.4E1,1E0,1E0,4.6E1,1E0,1E0,1E0,1E0,1E0,4.5E1,4.7E1,8.1E1,8.6E1,8E1,7.8E1,1E0,1E0,1E0,1E0,2.8E1,1E0,1E0,1E0,1E0,1E0,1E0,1E0,1E0,1E0,1E0,1E0,3.5E1,3.3E1,3E1,1E0,1E0,1E0,1E0,1E0,1E0,1E0,4.9E1,5E1,3.2E1,3.1E1,5.5E1,1E0,1E0,1E0,1E0,1E0,1E0,1E0,1E0,1E0,7.2E1,4.3E1,9.6E1,9.2E1,1.042E3,1E0,9E1,9.2E1,5.6144046E-3,-2.4034395E-3,1.7818136E-2,7.820045E-3,2.0194676E-2,1.1328827E-2,2.9005049E-2,2.0294135E-2,-6.4674444E-3,2.3536873E-3,-1.5831726E-2,-6.298451E-3,5.5801277E-3,-2.4188936E-3,1.5533434E-2,7.4192523E-3,2.4201024E-2,3.3157237E-2,1.3866663E-2,2.4280647E-2,9.132491E-3,7.2997547E-4,1.6847355E-2,1.0254974E-2,3.375972E-2,2.5189577E-2,4.269211E-2,3.5736214E-2,2.080505E-2,1.5838344E-2,2.7365327E-2,2.2384433E-2,-1.768262E-2,-2.4171045E-2,-6.708637E-3,-1.6634565E-2,-2.8091883E-2,-1.8764686E-2,-3.5556946E-2,-2.7397746E-2,-3.6980107E-3,5.544605E-3,-1.3199118E-2,-4.462458E-3,-1.6940339E-2,-2.5621984E-2,-5.0758845E-3,-1.5933597E-2,-1.0833744E-3,-8.185258E-3,3.0482232E-3,1.1091331E-2,-1.50648495E-2,-2.3778476E-2,-5.5205044E-3,-1.18381E-2,7.641427E-3,-3.5958157E-3,1.873209E-2,1.3147647E-2,2.4686425E-4,-6.3252114E-3,9.8722195E-3,2.349375E-3],"split_indices":[4,36,36,4,6,6,6,6,6,4,4,4,4,4,4,33,33,37,33,4,33,33,33,33,37,37,33,33,33,33,33,4,4,4,37,33,33,37,37,33,33,4,4,4,4,4,11,37,37,33,33,33,33,37,37,4,0,4,4,8,42,4,4,0,0,0,0,0,0,0,0,0,0,0,0,0,0,0,0,0,0,0,0,0,0,0,0,0,0,0,0,0,0,0,0,0,0,0,0,0,0,0,0,0,0,0,0,0,0,0,0,0,0,0,0,0,0,0,0,0,0,0,0,0,0,0,0],"split_type":[0,0,0,0,0,0,0,0,0,0,0,0,0,0,0,0,0,0,0,0,0,0,0,0,0,0,0,0,0,0,0,0,0,0,0,0,0,0,0,0,0,0,0,0,0,0,0,0,0,0,0,0,0,0,0,0,0,0,0,0,0,0,0,0,0,0,0,0,0,0,0,0,0,0,0,0,0,0,0,0,0,0,0,0,0,0,0,0,0,0,0,0,0,0,0,0,0,0,0,0,0,0,0,0,0,0,0,0,0,0,0,0,0,0,0,0,0,0,0,0,0,0,0,0,0,0,0],"sum_hessian":[3.1885E4,1.7477E4,1.4408E4,1.155E4,5.927E3,9.663E3,4.745E3,6.813E3,4.737E3,2.976E3,2.951E3,4.825E3,4.838E3,2.37E3,2.375E3,3.367E3,3.446E3,2.392E3,2.345E3,1.683E3,1.293E3,1.795E3,1.156E3,2.281E3,2.544E3,2.952E3,1.886E3,1.047E3,1.323E3,9.08E2,1.467E3,2.509E3,8.58E2,2.547E3,8.99E2,1.196E3,1.196E3,1.738E3,6.07E2,5.62E2,1.121E3,9.62E2,3.31E2,1.337E3,4.58E2,8.59E2,2.97E2,1.723E3,5.58E2,1.249E3,1.295E3,1.44E3,1.512E3,1.408E3,4.78E2,7.97E2,2.5E2,1.002E3,3.21E2,6.62E2,2.46E2,1.055E3,4.12E2,1.431E3,1.078E3,4.25E2,4.33E2,1.027E3,1.52E3,4.63E2,4.36E2,9.15E2,2.81E2,9.08E2,2.88E2,8.76E2,8.62E2,2.99E2,3.08E2,4.27E2,1.35E2,8.53E2,2.68E2,2.01E2,7.61E2,8.8E1,2.43E2,6.02E2,7.35E2,2E2,2.58E2,4.06E2,4.53E2,2.47E2,5E1,8.14E2,9.09E2,2.93E2,2.65E2,9.45E2,3.04E2,9.49E2,3.46E2,1.11E3,3.3E2,1.126E3,3.86E2,7.14E2,6.94E2,2.33E2,2.45E2,3.97E2,4E2,2.29E2,2.1E1,8.2E2,1.82E2,2.07E2,1.14E2,6.41E2,2.1E1,1.83E2,6.3E1,5.63E2,4.92E2,2.58E2,1.54E2],"tree_param":{"num_deleted":"0","num_feature":"47","num_nodes":"127","size_leaf_vector":"1"}},{"base_weights":[1.2555545E-3,1.5420134E-1,-4.484124E-1,3.819891E-1,-6.629775E-2,-2.3362538E-1,-6.830023E-1,1.9898166E-1,5.657432E-1,-2.5108477E-1,1.1550993E-1,-4.2052323E-1,-4.7233284E-2,-8.7494445E-1,-5.0306284E-1,3.0575657E-1,8.06708E-2,7.104336E-1,4.7506455E-1,-1.0199728E-1,-3.5006353E-1,2.0650703E-1,-1.8878147E-2,-2.593125E-1,-5.1507336E-1,8.408447E-2,-1.5800947E-1,-7.512548E-1,-9.9306697E-1,-3.93989E-1,-6.3061756E-1,3.9699343E-1,2.3809302E-1,1.3738829E-1,4.3295096E-3,7.9449433E-1,6.576872E-1,5.4454297E-1,4.0387976E-1,-4.9078852E-2,-1.445097E-1,-2.7422446E-1,-4.129065E-1,2.9501018E-1,1.5438594E-1,4.353116E-2,-8.027054E-2,-1.9409934E-1,-3.3655253E-1,-4.495076E-1,-6.0378987E-1,1.6456985E-1,2.6649214E-2,-1.07830755E-1,-2.2915056E-1,-6.782999E-1,-7.9835975E-1,-4.6806663E-2,-5.4023564E-2,-3.334552E-1,-4.5571208E-1,-5.4998606E-1,-6.679939E-1,2.2093622E-2,1.8116174E-2,1.4161167E-2,1.11413E-2,8.570373E-3,4.72879E-3,6.702102E-5,9.960504E-3,3.8943585E-2,4.3365356E-2,3.4107745E-2,3.0860905E-2,2.8191177E-2,2.5441334E-2,2.1528123E-2,1.8395193E-2,-1.9036047E-3,-5.3027878E-3,-5.4934653E-3,-8.646283E-3,-1.3121485E-2,-1.7020375E-2,-1.884557E-2,-2.295891E-2,1.5978923E-2,1.3658196E-2,8.895331E-3,5.928787E-3,4.2974926E-3,1.4353351E-3,-1.9036215E-3,-6.2747346E-3,-6.376061E-3,-1.1728498E-2,-1.974294E-2,-1.4796779E-2,-2.080318E-2,-2.4600977E-2,-1.77366E-2,-3.0359475E-2,9.501147E-3,4.6407203E-3,5.4469816E-5,2.642094E-3,-6.3148635E-3,-2.482563E-3,-1.2072016E-2,-9.63547E-3,-3.496599E-2,-3.0381946E-2,-3.996751E-2,-6.266189E-3,-1.7521812E-2,-1.2358527E-2,-2.3108047E-2,-1.42311575E-2,-2.4916727E-2,-2.9542139E-2,-3.161415E-2,-3.6029343E-2],"categories":[],"categories_nodes":[],"categories_segments":[],"categories_sizes":[],"default_left":[0,0,0,0,0,0,0,0,0,0,0,0,0,0,0,0,0,0,0,0,0,0,0,0,0,0,0,0,0,0,0,0,0,0,0,0,0,0,0,0,0,0,0,0,0,0,0,0,0,0,0,0,0,0,0,0,0,0,0,0,0,0,0,0,0,0,0,0,0,0,0,0,0,0,0,0,0,0,0,0,0,0,0,0,0,0,0,0,0,0,0,0,0,0,0,0,0,0,0,0,0,0,0,0,0,0,0,0,0,0,0,0,0,0,0,0,0,0,0,0,0,0,0],"id":7,"left_children":[1,3,5,7,9,11,13,15,17,19,21,23,25,27,29,31,33,35,37,39,41,43,45,47,49,51,53,55,57,59,61,63,65,67,69,71,73,75,77,79,81,83,85,87,89,91,93,95,97,99,101,103,105,107,109,111,113,-1,-1,115,117,119,121,-1,-1,-1,-1,-1,-1,-1,-1,-1,-1,-1,-1,-1,-1,-1,-1,-1,-1,-1,-1,-1,-1,-1,-1,-1,-1,-1,-1,-1,-1,-1,-1,-1,-1,-1,-1,-1,-1,-1,-1,-1,-1,-1,-1,-1,-1,-1,-1,-1,-1,-1,-1,-1,-1,-1,-1,-1,-1,-1,-1],"loss_changes":[2.2011382E3,1.1995464E3,4.0913293E2,3.9491992E2,4.077464E2,1.4775566E2,1.3363623E2,7.434364E1,7.656079E1,8.878366E1,7.4820465E1,3.2150024E1,3.0925406E1,2.6677734E1,2.7660828E1,1.9006042E1,1.2097105E1,9.480347E0,1.7614563E1,5.3989162E0,1.7125183E1,1.6782257E1,9.471025E0,3.8887749E0,7.4881287E0,4.4934998E0,4.0912323E0,2.6235352E0,3.7507935E0,3.8982239E0,2.4142456E0,1.8875427E0,1.1626282E0,2.318472E0,6.9409126E-1,3.0841064E-1,9.572754E-1,9.678345E-1,1.5550537E0,6.682465E-1,1.292141E0,1.1924286E0,3.1180725E0,6.3780975E-1,1.9144669E0,7.6848316E-1,2.3730555E0,1.1233158E0,7.309723E-1,8.914795E-1,2.6216125E-1,7.220545E-1,3.808764E-1,7.2215414E-1,1.6665077E-1,1.21658325E-1,2.69104E-1,0E0,0E0,7.207031E-1,4.5763397E-1,3.344345E-1,7.201233E-1,0E0,0E0,0E0,0E0,0E0,0E0,0E0,0E0,0E0,0E0,0E0,0E0,0E0,0E0,0E0,0E0,0E0,0E0,0E0,0E0,0E0,0E0,0E0,0E0,0E0,0E0,0E0,0E0,0E0,0E0,0E0,0E0,0E0,0E0,0E0,0E0,0E0,0E0,0E0,0E0,0E0,0E0,0E0,0E0,0E0,0E0,0E0,0E0,0E0,0E0,0E0,0E0,0E0,0E0,0E0,0E0,0E0,0E0,0E0,0E0],"parents":[2147483647,0,0,1,1,2,2,3,3,4,4,5,5,6,6,7,7,8,8,9,9,10,10,11,11,12,12,13,13,14,14,15,15,16,16,17,17,18,18,19,19,20,20,21,21,22,22,23,23,24,24,25,25,26,26,27,27,28,28,29,29,30,30,31,31,32,32,33,33,34,34,35,35,36,36,37,37,38,38,39,39,40,40,41,41,42,42,43,43,44,44,45,45,46,46,47,47,48,48,49,49,50,50,51,51,52,52,53,53,54,54,55,55,56,56,59,59,60,60,61,61,62,62],"right_children":[2,4,6,8,10,12,14,16,18,20,22,24,26,28,30,32,34,36,38,40,42,44,46,48,50,52,54,56,58,60,62,64,66,68,70,72,74,76,78,80,82,84,86,88,90,92,94,96,98,100,102,104,106,108,110,112,114,-1,-1,116,118,120,122,-1,-1,-1,-1,-1,-1,-1,-1,-1,-1,-1,-1,-1,-1,-1,-1,-1,-1,-1,-1,-1,-1,-1,-1,-1,-1,-1,-1,-1,-1,-1,-1,-1,-1,-1,-1,-1,-1,-1,-1,-1,-1,-1,-1,-1,-1,-1,-1,-1,-1,-1,-1,-1,-1,-1,-1,-1,-1,-1,-1],"split_conditions":[1E0,6E1,6.1E1,1E0,1E0,1E0,1E0,4.1E1,3.6E1,7.6E1,8.4E1,3.5E1,3.9E1,8E1,8.2E1,2.9E1,5.2E1,2.6E1,4.8E1,6.7E1,8.7E1,6.9E1,9.2E1,2.8E1,5E1,2.8E1,5.2E1,6.9E1,9.2E1,7.2E1,8.8E1,2.4E1,3.2E1,4.7E1,9.84E2,1.3E1,3.2E1,4.4E1,5.5E1,1E0,7.1E1,1E0,9.4E1,6.4E1,7.8E1,8.6E1,9.6E1,2.3E1,2.8E1,4.4E1,1.13E2,1E0,5.82E2,1E0,3.8E1,1E0,1.076E3,-4.6806663E-2,-5.4023564E-2,1E0,1E0,3E1,9.5E1,2.2093622E-2,1.8116174E-2,1.4161167E-2,1.11413E-2,8.570373E-3,4.72879E-3,6.702102E-5,9.960504E-3,3.8943585E-2,4.3365356E-2,3.4107745E-2,3.0860905E-2,2.8191177E-2,2.5441334E-2,2.1528123E-2,1.8395193E-2,-1.9036047E-3,-5.3027878E-3,-5.4934653E-3,-8.646283E-3,-1.3121485E-2,-1.7020375E-2,-1.884557E-2,-2.295891E-2,1.5978923E-2,1.3658196E-2,8.895331E-3,5.928787E-3,4.2974926E-3,1.4353351E-3,-1.9036215E-3,-6.2747346E-3,-6.376061E-3,-1.1728498E-2,-1.974294E-2,-1.4796779E-2,-2.080318E-2,-2.4600977E-2,-1.77366E-2,-3.0359475E-2,9.501147E-3,4.6407203E-3,5.4469816E-5,2.642094E-3,-6.3148635E-3,-2.482563E-3,-1.2072016E-2,-9.63547E-3,-3.496599E-2,-3.0381946E-2,-3.996751E-2,-6.266189E-3,-1.7521812E-2,-1.2358527E-2,-2.3108047E-2,-1.42311575E-2,-2.4916727E-2,-2.9542139E-2,-3.161415E-2,-3.6029343E-2],"split_indices":[35,4,4,3,3,3,3,4,4,4,4,4,4,4,4,4,4,4,4,4,4,4,4,4,4,4,4,4,4,4,4,4,4,4,2,5,4,4,4,14,4,20,4,4,4,4,4,4,0,4,2,18,8,15,0,28,8,0,0,20,43,0,4,0,0,0,0,0,0,0,0,0,0,0,0,0,0,0,0,0,0,0,0,0,0,0,0,0,0,0,0,0,0,0,0,0,0,0,0,0,0,0,0,0,0,0,0,0,0,0,0,0,0,0,0,0,0,0,0,0,0,0,0],"split_type":[0,0,0,0,0,0,0,0,0,0,0,0,0,0,0,0,0,0,0,0,0,0,0,0,0,0,0,0,0,0,0,0,0,0,0,0,0,0,0,0,0,0,0,0,0,0,0,0,0,0,0,0,0,0,0,0,0,0,0,0,0,0,0,0,0,0,0,0,0,0,0,0,0,0,0,0,0,0,0,0,0,0,0,0,0,0,0,0,0,0,0,0,0,0,0,0,0,0,0,0,0,0,0,0,0,0,0,0,0,0,0,0,0,0,0,0,0,0,0,0,0,0,0],"sum_hessian":[3.2003E4,2.3881E4,8.122E3,1.1746E4,1.2135E4,4.241E3,3.881E3,5.886E3,5.86E3,6.018E3,6.117E3,2.117E3,2.124E3,1.876E3,2.005E3,3.093E3,2.793E3,2.255E3,3.605E3,2.402E3,3.616E3,3.647E3,2.47E3,7.84E2,1.333E3,9.72E2,1.152E3,9.2E2,9.56E2,1.083E3,9.22E2,1.315E3,1.778E3,1.602E3,1.191E3,8.64E2,1.391E3,1.821E3,1.784E3,1.071E3,1.331E3,1.641E3,1.975E3,1.35E3,2.297E3,1.225E3,1.245E3,4.27E2,3.57E2,7.7E2,5.63E2,4.04E2,5.68E2,6.77E2,4.75E2,3.67E2,5.53E2,5.86E2,3.7E2,5.5E2,5.33E2,2.97E2,6.25E2,5.68E2,7.47E2,4.45E2,1.333E3,8.91E2,7.11E2,1.174E3,1.7E1,7.21E2,1.43E2,8.57E2,5.34E2,1.173E3,6.48E2,1.018E3,7.66E2,8.99E2,1.72E2,6.02E2,7.29E2,1.397E3,2.44E2,1.116E3,8.59E2,6.29E2,7.21E2,1.384E3,9.13E2,3.16E2,9.09E2,6.45E2,6E2,1.63E2,2.64E2,1.43E2,2.14E2,4.37E2,3.33E2,9E0,5.54E2,2.97E2,1.07E2,2.88E2,2.8E2,5.13E2,1.64E2,3.51E2,1.24E2,2.76E2,9.1E1,5.52E2,1E0,4.57E2,9.3E1,5.12E2,2.1E1,1.37E2,1.6E2,3.8E2,2.45E2],"tree_param":{"num_deleted":"0","num_feature":"47","num_nodes":"123","size_leaf_vector":"1"}},{"base_weights":[9.320091E-4,1.4729707E-1,-4.2733803E-1,-2.6670024E-2,3.2132474E-1,-6.0268706E-1,-2.5904864E-1,6.7186154E-2,-2.1180369E-1,4.1268477E-1,1.3971396E-1,-5.1903045E-1,-7.7651155E-1,-1.7024945E-1,-4.5117113E-1,1.4872776E-1,-9.9654995E-2,-1.3518901E-1,-3.6441803E-1,4.8865432E-1,2.5814956E-1,2.1933593E-1,-3.0781887E-2,-4.115965E-1,-6.2210214E-1,-7.690584E-1,-4.9027663E-2,-7.263549E-2,-2.710166E-1,-2.0900895E-1,-4.5646948E-1,2.4624835E-1,4.6032958E-2,-1.1972515E-2,-1.9536951E-1,-3.8124666E-2,-2.282433E-1,-3.5293135E-1,-5.13045E-1,5.8962333E-1,3.862397E-1,3.67256E-1,1.4784022E-1,3.1751165E-1,1.2135928E-1,2.2262473E-1,-3.6873132E-2,-1.3245966E-1,-4.1752505E-1,-3.984718E-1,-6.323585E-1,-7.751419E-1,-4.7500256E-1,1.7874342E-1,-7.9903886E-2,-2.6171976E-1,-5.071646E-1,-2.7824646E-1,-4.270928E-2,-4.527695E-1,-3.6989864E-2,1.7044866E-2,7.4691894E-3,7.258291E-3,-2.9197594E-3,8.874407E-3,-1.0280953E-3,-9.303025E-3,-2.3187239E-2,-3.4675025E-3,2.2390355E-4,-1.0958418E-2,-1.8201355E-2,-1.800525E-2,-7.59368E-4,-3.306326E-2,-2.026154E-2,3.444784E-2,2.4664242E-2,2.359495E-2,1.49752945E-2,1.8784372E-2,7.970144E-3,7.7181407E-3,-5.0072977E-3,3.2282863E-2,1.5404724E-2,6.3100145E-3,-1.1398783E-2,7.0603797E-3,1.9845417E-2,-1.4952212E-2,-1.2817289E-3,-9.228369E-3,4.9023926E-3,-2.9828608E-2,-2.0574763E-2,-2.1829486E-2,-1.5579343E-3,-4.1707095E-2,-3.1341426E-2,-2.6647598E-2,-3.9007355E-2,-6.8103313E-3,-2.4791254E-2,1.6099362E-2,5.774389E-3,-3.6293806E-3,-1.2153321E-2,-4.3880046E-4,-1.3304862E-2,-2.6848972E-2,-1.3803042E-2,-1.897226E-2,-6.449163E-3,6.8233446E-3,-9.245227E-3,-2.2862298E-2,-1.3816257E-2],"categories":[],"categories_nodes":[],"categories_segments":[],"categories_sizes":[],"default_left":[0,0,0,0,0,0,0,0,0,0,0,0,0,0,0,0,0,0,0,0,0,0,0,0,0,0,0,0,0,0,0,0,0,0,0,0,0,0,0,0,0,0,0,0,0,0,0,0,0,0,0,0,0,0,0,0,0,0,0,0,0,0,0,0,0,0,0,0,0,0,0,0,0,0,0,0,0,0,0,0,0,0,0,0,0,0,0,0,0,0,0,0,0,0,0,0,0,0,0,0,0,0,0,0,0,0,0,0,0,0,0,0,0,0,0,0,0,0,0],"id":8,"left_children":[1,3,5,7,9,11,13,15,17,19,21,23,25,27,29,31,33,35,37,39,41,43,45,47,49,51,-1,53,55,57,59,61,63,65,67,69,71,73,75,77,79,81,83,85,87,89,91,93,95,97,99,101,103,105,107,109,111,113,115,117,-1,-1,-1,-1,-1,-1,-1,-1,-1,-1,-1,-1,-1,-1,-1,-1,-1,-1,-1,-1,-1,-1,-1,-1,-1,-1,-1,-1,-1,-1,-1,-1,-1,-1,-1,-1,-1,-1,-1,-1,-1,-1,-1,-1,-1,-1,-1,-1,-1,-1,-1,-1,-1,-1,-1,-1,-1,-1,-1],"loss_changes":[2.0064451E3,7.222511E2,2.4043384E2,2.0732652E2,1.9781824E2,5.7646973E1,7.092822E1,1.07735214E2,4.688443E1,9.301868E1,5.421257E1,2.9619995E1,1.215271E0,2.7994041E1,1.5918274E0,5.3257713E1,2.1818127E1,2.4143555E1,2.1083221E0,5.476416E1,3.144252E1,2.6144196E1,1.9716195E0,2.1357422E0,2.9017334E0,1.8751221E0,0E0,2.659953E0,2.9430542E0,3.335414E-1,1.0131836E0,2.4959732E1,2.6841537E1,2.213592E0,3.0191154E0,1.7429863E0,1.602211E0,3.0182495E0,1.2341766E0,2.5268555E1,1.9494995E1,2.2446594E0,2.1230793E0,4.000656E0,2.3354797E0,3.696437E-1,3.65474E0,3.6642188E-1,1.1537018E0,8.6847305E-1,9.4226074E-1,1.0715942E0,1.2999344E-1,3.3431458E-1,1.663146E0,1.4924622E0,2.1005726E-1,2.6826823E-1,2.8001335E-1,8.783264E-1,0E0,0E0,0E0,0E0,0E0,0E0,0E0,0E0,0E0,0E0,0E0,0E0,0E0,0E0,0E0,0E0,0E0,0E0,0E0,0E0,0E0,0E0,0E0,0E0,0E0,0E0,0E0,0E0,0E0,0E0,0E0,0E0,0E0,0E0,0E0,0E0,0E0,0E0,0E0,0E0,0E0,0E0,0E0,0E0,0E0,0E0,0E0,0E0,0E0,0E0,0E0,0E0,0E0,0E0,0E0,0E0,0E0,0E0,0E0],"parents":[2147483647,0,0,1,1,2,2,3,3,4,4,5,5,6,6,7,7,8,8,9,9,10,10,11,11,12,12,13,13,14,14,15,15,16,16,17,17,18,18,19,19,20,20,21,21,22,22,23,23,24,24,25,25,27,27,28,28,29,29,30,30,31,31,32,32,33,33,34,34,35,35,36,36,37,37,38,38,39,39,40,40,41,41,42,42,43,43,44,44,45,45,46,46,47,47,48,48,49,49,50,50,51,51,52,52,53,53,54,54,55,55,56,56,57,57,58,58,59,59],"right_children":[2,4,6,8,10,12,14,16,18,20,22,24,26,28,30,32,34,36,38,40,42,44,46,48,50,52,-1,54,56,58,60,62,64,66,68,70,72,74,76,78,80,82,84,86,88,90,92,94,96,98,100,102,104,106,108,110,112,114,116,118,-1,-1,-1,-1,-1,-1,-1,-1,-1,-1,-1,-1,-1,-1,-1,-1,-1,-1,-1,-1,-1,-1,-1,-1,-1,-1,-1,-1,-1,-1,-1,-1,-1,-1,-1,-1,-1,-1,-1,-1,-1,-1,-1,-1,-1,-1,-1,-1,-1,-1,-1,-1,-1,-1,-1,-1,-1,-1,-1],"split_conditions":[1E0,1E0,1E0,1E0,1E0,1E0,1E0,1E0,1E0,1E0,1E0,1E0,1.028E3,1E0,1.72E2,1E0,1E0,1E0,9.98E2,1E0,1E0,1E0,1.82E2,1.66E2,1.94E2,9.49E2,-4.9027663E-2,1.82E2,1.033E3,1E0,1.067E3,1E0,1E0,2.01E2,1.033E3,3.4E1,1.01E3,9.35E2,9.57E2,1E0,1E0,1.021E3,1.042E3,1.82E2,1.047E3,1E0,1.53E2,1E0,1.42E2,1E0,1.53E2,1.77E2,9.8E2,1.53E2,1.021E3,1.72E2,1E0,1E0,1E1,9.68E2,-3.6989864E-2,1.7044866E-2,7.4691894E-3,7.258291E-3,-2.9197594E-3,8.874407E-3,-1.0280953E-3,-9.303025E-3,-2.3187239E-2,-3.4675025E-3,2.2390355E-4,-1.0958418E-2,-1.8201355E-2,-1.800525E-2,-7.59368E-4,-3.306326E-2,-2.026154E-2,3.444784E-2,2.4664242E-2,2.359495E-2,1.49752945E-2,1.8784372E-2,7.970144E-3,7.7181407E-3,-5.0072977E-3,3.2282863E-2,1.5404724E-2,6.3100145E-3,-1.1398783E-2,7.0603797E-3,1.9845417E-2,-1.4952212E-2,-1.2817289E-3,-9.228369E-3,4.9023926E-3,-2.9828608E-2,-2.0574763E-2,-2.1829486E-2,-1.5579343E-3,-4.1707095E-2,-3.1341426E-2,-2.6647598E-2,-3.9007355E-2,-6.8103313E-3,-2.4791254E-2,1.6099362E-2,5.774389E-3,-3.6293806E-3,-1.2153321E-2,-4.3880046E-4,-1.3304862E-2,-2.6848972E-2,-1.3803042E-2,-1.897226E-2,-6.449163E-3,6.8233446E-3,-9.245227E-3,-2.2862298E-2,-1.3816257E-2],"split_indices":[35,3,3,37,37,37,37,34,34,34,34,38,8,38,8,38,38,33,8,38,38,33,8,8,8,2,0,8,8,28,8,33,33,8,8,0,8,2,2,33,33,8,8,8,8,21,2,12,2,12,2,8,8,8,8,8,9,30,5,2,0,0,0,0,0,0,0,0,0,0,0,0,0,0,0,0,0,0,0,0,0,0,0,0,0,0,0,0,0,0,0,0,0,0,0,0,0,0,0,0,0,0,0,0,0,0,0,0,0,0,0,0,0,0,0,0,0,0,0],"split_type":[0,0,0,0,0,0,0,0,0,0,0,0,0,0,0,0,0,0,0,0,0,0,0,0,0,0,0,0,0,0,0,0,0,0,0,0,0,0,0,0,0,0,0,0,0,0,0,0,0,0,0,0,0,0,0,0,0,0,0,0,0,0,0,0,0,0,0,0,0,0,0,0,0,0,0,0,0,0,0,0,0,0,0,0,0,0,0,0,0,0,0,0,0,0,0,0,0,0,0,0,0,0,0,0,0,0,0,0,0,0,0,0,0,0,0,0,0,0,0],"sum_hessian":[3.2007E4,2.3855E4,8.152E3,1.193E4,1.1925E4,3.991E3,4.161E3,7.917E3,4.013E3,7.933E3,3.992E3,2.697E3,1.294E3,2.847E3,1.314E3,5.318E3,2.599E3,2.673E3,1.34E3,5.317E3,2.616E3,2.721E3,1.271E3,1.323E3,1.374E3,1.253E3,4.1E1,1.447E3,1.4E3,2.9E1,1.285E3,2.727E3,2.591E3,1.357E3,1.242E3,1.309E3,1.364E3,1.247E3,9.3E1,2.675E3,2.642E3,1.314E3,1.302E3,1.358E3,1.363E3,2.9E1,1.242E3,2.8E1,1.295E3,6.2E1,1.312E3,1.226E3,2.7E1,4E1,1.407E3,1.349E3,5.1E1,2E1,9E0,1.271E3,1.4E1,1.378E3,1.349E3,1.329E3,1.262E3,5.8E1,1.299E3,1.202E3,4E1,7.55E2,5.54E2,1.281E3,8.3E1,1.221E3,2.6E1,3.7E1,5.6E1,1.314E3,1.361E3,1.327E3,1.315E3,1.262E3,5.2E1,1.269E3,3.3E1,3.6E1,1.322E3,1.345E3,1.8E1,2.1E1,8E0,5E1,1.192E3,2.3E1,5E0,3.9E1,1.256E3,5.6E1,6E0,3.1E1,1.281E3,2.7E1,1.199E3,2E0,2.5E1,1.1E1,2.9E1,1.348E3,5.9E1,2.3E1,1.326E3,4.4E1,7E0,1.1E1,9E0,4E0,5E0,1.238E3,3.3E1],"tree_param":{"num_deleted":"0","num_feature":"47","num_nodes":"119","size_leaf_vector":"1"}},{"base_weights":[6.721843E-4,1.3704324E-1,-4.065218E-1,3.5253724E-1,-7.31182E-2,-2.2872101E-1,-6.620342E-1,1.8676615E-1,5.1852906E-1,-2.3784585E-1,9.121488E-2,-4.0157667E-1,-6.073356E-2,-8.4064007E-1,-5.0106186E-1,2.7397E-1,1.1732741E-2,4.2797408E-1,7.018298E-1,-3.336416E-1,-5.185331E-2,1.918877E-3,2.777958E-1,-4.9087936E-1,-2.1955034E-1,7.41213E-2,-1.8769643E-1,-9.3247485E-1,-6.519404E-1,-5.871189E-1,-3.3088613E-1,1.5016712E-1,3.9719713E-1,-1.1265559E-1,1.3213688E-1,3.0963138E-1,5.4742116E-1,5.7305735E-1,8.2460874E-1,-4.5647767E-1,-2.1112922E-1,-1.7609109E-1,7.087846E-2,-1.1861403E-1,1.163928E-1,1.5909657E-1,3.9501393E-1,-6.164038E-1,-3.634357E-1,-6.88275E-2,-3.3669764E-1,-2.2289049E-2,2.4102888E-1,-2.782133E-1,-1.3264953E-2,-1.059896E0,-7.962296E-1,-7.700929E-1,-5.2700794E-1,-6.9670796E-1,-4.7062296E-1,-4.4725335E-1,-2.0253165E-1,1.1536822E-2,-1.9179012E-4,2.3555538E-2,1.1934177E-2,-6.560665E-4,-1.2093876E-2,1.310341E-2,1.9153104E-3,1.9459914E-2,7.104826E-3,3.4165602E-2,2.263689E-2,3.6871437E-2,2.4524499E-2,4.720455E-2,3.6624677E-2,-1.7299851E-2,-2.8905958E-2,-2.900327E-3,-1.5786683E-2,-1.009943E-3,-1.3491923E-2,1.0657684E-2,-1.5650295E-3,-8.707827E-4,-1.2143471E-2,1.0993208E-2,-2.3191806E-4,1.1884439E-2,2.2590999E-4,2.4055876E-2,1.2514426E-2,-2.4589138E-2,-3.7164524E-2,-1.2097171E-2,-2.4138056E-2,-9.119173E-3,1.7134942E-3,-2.2587903E-2,-1.0841893E-2,-7.6284334E-3,4.5942864E-3,5.4510445E-3,1.8845899E-2,-1.9516656E-2,-8.074264E-3,-6.2331688E-3,5.317464E-3,-4.8656385E-2,-5.8549948E-2,-3.287677E-2,-4.306231E-2,-3.168385E-2,-4.1772153E-2,-2.2052547E-2,-3.0643702E-2,-2.9430816E-2,-3.9875295E-2,-1.9235319E-2,-2.9033376E-2,-1.6300038E-2,-2.5778724E-2,-6.8039E-3,-1.7180836E-2],"categories":[],"categories_nodes":[],"categories_segments":[],"categories_sizes":[],"default_left":[0,0,0,0,0,0,0,0,0,0,0,0,0,0,0,0,0,0,0,0,0,0,0,0,0,0,0,0,0,0,0,0,0,0,0,0,0,0,0,0,0,0,0,0,0,0,0,0,0,0,0,0,0,0,0,0,0,0,0,0,0,0,0,0,0,0,0,0,0,0,0,0,0,0,0,0,0,0,0,0,0,0,0,0,0,0,0,0,0,0,0,0,0,0,0,0,0,0,0,0,0,0,0,0,0,0,0,0,0,0,0,0,0,0,0,0,0,0,0,0,0,0,0,0,0,0,0],"id":9,"left_children":[1,3,5,7,9,11,13,15,17,19,21,23,25,27,29,31,33,35,37,39,41,43,45,47,49,51,53,55,57,59,61,63,65,67,69,71,73,75,77,79,81,83,85,87,89,91,93,95,97,99,101,103,105,107,109,111,113,115,117,119,121,123,125,-1,-1,-1,-1,-1,-1,-1,-1,-1,-1,-1,-1,-1,-1,-1,-1,-1,-1,-1,-1,-1,-1,-1,-1,-1,-1,-1,-1,-1,-1,-1,-1,-1,-1,-1,-1,-1,-1,-1,-1,-1,-1,-1,-1,-1,-1,-1,-1,-1,-1,-1,-1,-1,-1,-1,-1,-1,-1,-1,-1,-1,-1,-1,-1],"loss_changes":[1.77711E3,1.0857731E3,3.6460852E2,3.2561768E2,3.2859982E2,1.374976E2,9.4283325E1,9.041829E1,9.786487E1,1.0799109E2,1.01247925E2,3.7832428E1,4.115702E1,2.642566E1,2.5214508E1,6.0262085E1,2.9534296E1,5.58219E1,3.0421265E1,6.011444E1,3.1453697E1,5.673687E1,2.7305405E1,2.4811737E1,1.357254E1,1.8768196E1,1.9543083E1,1.7332397E1,7.1813507E0,1.4366547E1,8.647125E0,2.4494099E1,2.3097595E1,1.2472975E1,1.2205887E1,2.6498505E1,2.5037903E1,1.2626434E1,1.02925415E1,2.6637695E1,3.209639E1,1.4974398E1,1.5096643E1,2.5182379E1,2.641257E1,1.189246E1,1.2203888E1,1.2079102E1,1.1176453E1,3.963325E0,5.8735886E0,1.1021256E1,7.6186237E0,1.0603294E1,5.6629887E0,4.046997E0,4.0326233E0,1.8062744E0,1.5970306E0,5.969757E0,5.080673E0,2.3668633E0,2.578413E0,0E0,0E0,0E0,0E0,0E0,0E0,0E0,0E0,0E0,0E0,0E0,0E0,0E0,0E0,0E0,0E0,0E0,0E0,0E0,0E0,0E0,0E0,0E0,0E0,0E0,0E0,0E0,0E0,0E0,0E0,0E0,0E0,0E0,0E0,0E0,0E0,0E0,0E0,0E0,0E0,0E0,0E0,0E0,0E0,0E0,0E0,0E0,0E0,0E0,0E0,0E0,0E0,0E0,0E0,0E0,0E0,0E0,0E0,0E0,0E0,0E0,0E0,0E0,0E0],"parents":[2147483647,0,0,1,1,2,2,3,3,4,4,5,5,6,6,7,7,8,8,9,9,10,10,11,11,12,12,13,13,14,14,15,15,16,16,17,17,18,18,19,19,20,20,21,21,22,22,23,23,24,24,25,25,26,26,27,27,28,28,29,29,30,30,31,31,32,32,33,33,34,34,35,35,36,36,37,37,38,38,39,39,40,40,41,41,42,42,43,43,44,44,45,45,46,46,47,47,48,48,49,49,50,50,51,51,52,52,53,53,54,54,55,55,56,56,57,57,58,58,59,59,60,60,61,61,62,62],"right_children":[2,4,6,8,10,12,14,16,18,20,22,24,26,28,30,32,34,36,38,40,42,44,46,48,50,52,54,56,58,60,62,64,66,68,70,72,74,76,78,80,82,84,86,88,90,92,94,96,98,100,102,104,106,108,110,112,114,116,118,120,122,124,126,-1,-1,-1,-1,-1,-1,-1,-1,-1,-1,-1,-1,-1,-1,-1,-1,-1,-1,-1,-1,-1,-1,-1,-1,-1,-1,-1,-1,-1,-1,-1,-1,-1,-1,-1,-1,-1,-1,-1,-1,-1,-1,-1,-1,-1,-1,-1,-1,-1,-1,-1,-1,-1,-1,-1,-1,-1,-1,-1,-1,-1,-1,-1,-1],"split_conditions":[1E0,6E1,6.7E1,1E0,1E0,1E0,1E0,1E0,1E0,1E0,1E0,1E0,4.3E1,1E0,1E0,1E0,1E0,1E0,1E0,1E0,1E0,1E0,1E0,1E0,4E1,1E0,1E0,1E0,1E0,1E0,1E0,1E0,1E0,4.3E1,3.7E1,1E0,3.7E1,3.3E1,3.8E1,8.1E1,7.6E1,7.4E1,7.7E1,8.2E1,8.2E1,8.6E1,8.6E1,4.4E1,4.4E1,1E0,1E0,1E0,1E0,1E0,1E0,8.6E1,7.7E1,7.8E1,8.3E1,8.2E1,8.6E1,8E1,9E1,1.1536822E-2,-1.9179012E-4,2.3555538E-2,1.1934177E-2,-6.560665E-4,-1.2093876E-2,1.310341E-2,1.9153104E-3,1.9459914E-2,7.104826E-3,3.4165602E-2,2.263689E-2,3.6871437E-2,2.4524499E-2,4.720455E-2,3.6624677E-2,-1.7299851E-2,-2.8905958E-2,-2.900327E-3,-1.5786683E-2,-1.009943E-3,-1.3491923E-2,1.0657684E-2,-1.5650295E-3,-8.707827E-4,-1.2143471E-2,1.0993208E-2,-2.3191806E-4,1.1884439E-2,2.2590999E-4,2.4055876E-2,1.2514426E-2,-2.4589138E-2,-3.7164524E-2,-1.2097171E-2,-2.4138056E-2,-9.119173E-3,1.7134942E-3,-2.2587903E-2,-1.0841893E-2,-7.6284334E-3,4.5942864E-3,5.4510445E-3,1.8845899E-2,-1.9516656E-2,-8.074264E-3,-6.2331688E-3,5.317464E-3,-4.8656385E-2,-5.8549948E-2,-3.287677E-2,-4.306231E-2,-3.168385E-2,-4.1772153E-2,-2.2052547E-2,-3.0643702E-2,-2.9430816E-2,-3.9875295E-2,-1.9235319E-2,-2.9033376E-2,-1.6300038E-2,-2.5778724E-2,-6.8039E-3,-1.7180836E-2],"split_indices":[35,4,4,3,3,3,3,37,36,36,36,36,4,36,36,6,6,6,6,6,6,6,6,6,4,36,36,6,6,6,6,34,34,4,4,34,4,4,4,4,4,4,4,4,4,4,4,4,4,6,6,6,6,6,6,4,4,4,4,4,4,4,4,0,0,0,0,0,0,0,0,0,0,0,0,0,0,0,0,0,0,0,0,0,0,0,0,0,0,0,0,0,0,0,0,0,0,0,0,0,0,0,0,0,0,0,0,0,0,0,0,0,0,0,0,0,0,0,0,0,0,0,0,0,0,0,0],"split_type":[0,0,0,0,0,0,0,0,0,0,0,0,0,0,0,0,0,0,0,0,0,0,0,0,0,0,0,0,0,0,0,0,0,0,0,0,0,0,0,0,0,0,0,0,0,0,0,0,0,0,0,0,0,0,0,0,0,0,0,0,0,0,0,0,0,0,0,0,0,0,0,0,0,0,0,0,0,0,0,0,0,0,0,0,0,0,0,0,0,0,0,0,0,0,0,0,0,0,0,0,0,0,0,0,0,0,0,0,0,0,0,0,0,0,0,0,0,0,0,0,0,0,0,0,0,0,0],"sum_hessian":[3.2001E4,2.3973E4,8.028E3,1.1836E4,1.2137E4,4.735E3,3.293E3,5.923E3,5.913E3,6.061E3,6.076E3,2.333E3,2.402E3,1.559E3,1.734E3,3.953E3,1.97E3,3.96E3,1.953E3,4E3,2.061E3,4.11E3,1.966E3,1.564E3,7.69E2,1.165E3,1.237E3,1.046E3,5.13E2,1.15E3,5.84E2,1.973E3,1.98E3,9.69E2,1.001E3,1.991E3,1.969E3,9.56E2,9.97E2,1.996E3,2.004E3,1.024E3,1.037E3,2.002E3,2.108E3,9.78E2,9.88E2,7.86E2,7.78E2,3.37E2,4.32E2,7.39E2,4.26E2,8.14E2,4.23E2,5.37E2,5.09E2,2.61E2,2.52E2,5.9E2,5.6E2,3.05E2,2.79E2,1.295E3,6.78E2,1.349E3,6.31E2,5.48E2,4.21E2,4.19E2,5.82E2,1.349E3,6.42E2,8.06E2,1.163E3,3.17E2,6.39E2,4.3E2,5.67E2,1.048E3,9.48E2,8.14E2,1.19E3,3.85E2,6.39E2,4.33E2,6.04E2,1.104E3,8.98E2,1.136E3,9.72E2,6.48E2,3.3E2,6.18E2,3.7E2,3.99E2,3.87E2,3.87E2,3.91E2,1.6E2,1.77E2,2.19E2,2.13E2,3.45E2,3.94E2,2.17E2,2.09E2,4.14E2,4E2,2.19E2,2.04E2,3.07E2,2.3E2,1.66E2,3.43E2,8.8E1,1.73E2,1.29E2,1.23E2,2.88E2,3.02E2,3.17E2,2.43E2,1.12E2,1.93E2,1.91E2,8.8E1],"tree_param":{"num_deleted":"0","num_feature":"47","num_nodes":"127","size_leaf_vector":"1"}},{"base_weights":[7.3910516E-5,1.3277355E-1,-3.89617E-1,3.1568265E-1,-8.8517785E-2,-1.7561741E-1,-5.7895994E-1,1.5958941E-1,4.7357753E-1,-2.4851105E-1,6.835344E-2,-3.3381358E-1,-1.8156016E-2,-7.417439E-1,-4.232189E-1,7.4653156E-2,3.228574E-1,3.8770005E-1,6.4377373E-1,-3.4133947E-1,-7.193179E-2,-1.7743062E-2,2.4493822E-1,-4.5611927E-1,-2.1307123E-1,-1.0450916E-1,1.4992842E-1,-6.0744506E-1,-8.544794E-1,-5.0579286E-1,-2.6158968E-1,-4.1000705E-2,1.8679708E-1,2.0351063E-1,4.455751E-1,4.9279305E-1,2.483097E-1,5.605647E-1,8.196544E-1,-4.2614055E-1,-1.7726608E-1,-1.9148631E-1,4.628312E-2,-1.3479836E-1,9.450951E-2,1.6107033E-1,4.0825632E-1,-5.5000246E-1,-2.7447888E-1,-2.9380596E-1,-5.805098E-2,-2.1181671E-1,5.7126703E-3,3.1725798E-2,2.7946767E-1,-7.250529E-1,-4.86106E-1,-9.397909E-1,-6.7442465E-1,-4.077645E-1,-6.2990725E-1,-1.09779075E-1,-3.52701E-1,-6.3308566E-3,5.8027613E-3,5.30102E-3,1.7527198E-2,5.8308495E-3,1.9261193E-2,2.714333E-2,1.6922401E-2,2.0628845E-2,3.2839473E-2,8.245156E-3,2.0858182E-2,3.309545E-2,2.1225153E-2,3.4947935E-2,4.669807E-2,-2.6996274E-2,-1.5504864E-2,-1.47586735E-2,-2.9432531E-3,-1.4233234E-2,-6.2541774E-4,-1.5232929E-3,1.0512775E-2,-1.0843802E-2,1.0234304E-3,5.5454846E-4,1.2779263E-2,2.108171E-3,1.3430612E-2,1.4638155E-2,2.649124E-2,-2.1065673E-2,-3.1093791E-2,-5.669112E-3,-1.6797729E-2,-8.547337E-3,-1.920205E-2,3.918614E-3,-7.2998055E-3,-5.199709E-3,-1.5438618E-2,4.493944E-3,-5.961166E-3,6.2286193E-3,-3.3452536E-3,2.1955661E-2,9.836915E-3,-4.0167343E-2,-2.7501503E-2,-2.0601401E-2,-3.258676E-2,-5.223772E-2,-4.113211E-2,-3.910086E-2,-2.7338192E-2,-2.5553018E-2,-1.4397234E-2,-3.6881577E-2,-2.6323173E-2,-1.0790984E-2,-5.4633425E-4,-2.2653924E-2,-1.1798567E-2],"categories":[],"categories_nodes":[],"categories_segments":[],"categories_sizes":[],"default_left":[0,0,0,0,0,0,0,0,0,0,0,0,0,0,0,0,0,0,0,0,0,0,0,0,0,0,0,0,0,0,0,0,0,0,0,0,0,0,0,0,0,0,0,0,0,0,0,0,0,0,0,0,0,0,0,0,0,0,0,0,0,0,0,0,0,0,0,0,0,0,0,0,0,0,0,0,0,0,0,0,0,0,0,0,0,0,0,0,0,0,0,0,0,0,0,0,0,0,0,0,0,0,0,0,0,0,0,0,0,0,0,0,0,0,0,0,0,0,0,0,0,0,0,0,0,0,0],"id":10,"left_children":[1,3,5,7,9,11,13,15,17,19,21,23,25,27,29,31,33,35,37,39,41,43,45,47,49,51,53,55,57,59,61,63,65,67,69,71,73,75,77,79,81,83,85,87,89,91,93,95,97,99,101,103,105,107,109,111,113,115,117,119,121,123,125,-1,-1,-1,-1,-1,-1,-1,-1,-1,-1,-1,-1,-1,-1,-1,-1,-1,-1,-1,-1,-1,-1,-1,-1,-1,-1,-1,-1,-1,-1,-1,-1,-1,-1,-1,-1,-1,-1,-1,-1,-1,-1,-1,-1,-1,-1,-1,-1,-1,-1,-1,-1,-1,-1,-1,-1,-1,-1,-1,-1,-1,-1,-1,-1],"loss_changes":[1.6546239E3,9.661543E2,3.2923938E2,3.2200256E2,2.7112924E2,9.507462E1,1.0900452E2,9.1126175E1,9.4696045E1,8.7637634E1,8.2938515E1,2.802008E1,2.7796654E1,3.138147E1,2.9309784E1,5.6102383E1,3.2848083E1,6.3161133E1,3.1400635E1,4.869162E1,2.6070347E1,4.820938E1,2.4424736E1,1.5964127E1,1.1997837E1,1.4963166E1,9.943855E0,1.3418488E1,1.69234E1,1.7494415E1,1.0307365E1,2.8655884E1,2.900917E1,1.7986946E1,1.1364456E1,3.2116943E1,2.611248E1,2.0140625E1,8.963287E0,3.033374E1,1.667921E1,1.5289139E1,1.1685017E1,2.2892578E1,2.516411E1,1.5116259E1,8.353325E0,5.4910583E0,3.1706524E0,6.929741E0,3.9707031E0,6.668911E0,6.5828333E0,3.1310554E0,4.0078983E0,6.245331E0,5.596283E0,8.645691E0,4.6682434E0,9.977142E0,6.7657166E0,2.9536693E0,5.364937E0,0E0,0E0,0E0,0E0,0E0,0E0,0E0,0E0,0E0,0E0,0E0,0E0,0E0,0E0,0E0,0E0,0E0,0E0,0E0,0E0,0E0,0E0,0E0,0E0,0E0,0E0,0E0,0E0,0E0,0E0,0E0,0E0,0E0,0E0,0E0,0E0,0E0,0E0,0E0,0E0,0E0,0E0,0E0,0E0,0E0,0E0,0E0,0E0,0E0,0E0,0E0,0E0,0E0,0E0,0E0,0E0,0E0,0E0,0E0,0E0,0E0,0E0,0E0,0E0],"parents":[2147483647,0,0,1,1,2,2,3,3,4,4,5,5,6,6,7,7,8,8,9,9,10,10,11,11,12,12,13,13,14,14,15,15,16,16,17,17,18,18,19,19,20,20,21,21,22,22,23,23,24,24,25,25,26,26,27,27,28,28,29,29,30,30,31,31,32,32,33,33,34,34,35,35,36,36,37,37,38,38,39,39,40,40,41,41,42,42,43,43,44,44,45,45,46,46,47,47,48,48,49,49,50,50,51,51,52,52,53,53,54,54,55,55,56,56,57,57,58,58,59,59,60,60,61,61,62,62],"right_children":[2,4,6,8,10,12,14,16,18,20,22,24,26,28,30,32,34,36,38,40,42,44,46,48,50,52,54,56,58,60,62,64,66,68,70,72,74,76,78,80,82,84,86,88,90,92,94,96,98,100,102,104,106,108,110,112,114,116,118,120,122,124,126,-1,-1,-1,-1,-1,-1,-1,-1,-1,-1,-1,-1,-1,-1,-1,-1,-1,-1,-1,-1,-1,-1,-1,-1,-1,-1,-1,-1,-1,-1,-1,-1,-1,-1,-1,-1,-1,-1,-1,-1,-1,-1,-1,-1,-1,-1,-1,-1,-1,-1,-1,-1,-1,-1,-1,-1,-1,-1,-1,-1,-1,-1,-1,-1],"split_conditions":[1E0,6.4E1,5.7E1,1E0,1E0,1E0,1E0,1E0,1E0,1E0,1E0,1E0,1E0,7.6E1,1E0,1E0,1E0,4.5E1,1E0,1E0,1E0,1E0,1E0,1E0,1E0,1E0,1E0,1E0,1E0,8.1E1,7.4E1,1E0,1E0,1E0,4.3E1,1E0,1E0,4.6E1,1E0,1E0,1E0,1E0,1E0,1E0,1E0,1E0,1E0,3.4E1,3E1,3.5E1,3.4E1,3.8E1,4.3E1,3.9E1,3.2E1,1E0,1E0,1E0,1E0,1E0,1E0,1E0,1E0,-6.3308566E-3,5.8027613E-3,5.30102E-3,1.7527198E-2,5.8308495E-3,1.9261193E-2,2.714333E-2,1.6922401E-2,2.0628845E-2,3.2839473E-2,8.245156E-3,2.0858182E-2,3.309545E-2,2.1225153E-2,3.4947935E-2,4.669807E-2,-2.6996274E-2,-1.5504864E-2,-1.47586735E-2,-2.9432531E-3,-1.4233234E-2,-6.2541774E-4,-1.5232929E-3,1.0512775E-2,-1.0843802E-2,1.0234304E-3,5.5454846E-4,1.2779263E-2,2.108171E-3,1.3430612E-2,1.4638155E-2,2.649124E-2,-2.1065673E-2,-3.1093791E-2,-5.669112E-3,-1.6797729E-2,-8.547337E-3,-1.920205E-2,3.918614E-3,-7.2998055E-3,-5.199709E-3,-1.5438618E-2,4.493944E-3,-5.961166E-3,6.2286193E-3,-3.3452536E-3,2.1955661E-2,9.836915E-3,-4.0167343E-2,-2.7501503E-2,-2.0601401E-2,-3.258676E-2,-5.223772E-2,-4.113211E-2,-3.910086E-2,-2.7338192E-2,-2.5553018E-2,-1.4397234E-2,-3.6881577E-2,-2.6323173E-2,-1.0790984E-2,-5.4633425E-4,-2.2653924E-2,-1.1798567E-2],"split_indices":[35,4,4,3,3,3,3,36,36,36,36,6,36,4,36,6,6,4,32,32,6,6,32,36,36,6,6,6,36,4,4,32,32,32,4,32,32,4,6,6,6,32,32,32,32,6,6,4,4,4,4,4,4,4,4,36,37,6,6,6,6,6,6,0,0,0,0,0,0,0,0,0,0,0,0,0,0,0,0,0,0,0,0,0,0,0,0,0,0,0,0,0,0,0,0,0,0,0,0,0,0,0,0,0,0,0,0,0,0,0,0,0,0,0,0,0,0,0,0,0,0,0,0,0,0,0,0],"split_type":[0,0,0,0,0,0,0,0,0,0,0,0,0,0,0,0,0,0,0,0,0,0,0,0,0,0,0,0,0,0,0,0,0,0,0,0,0,0,0,0,0,0,0,0,0,0,0,0,0,0,0,0,0,0,0,0,0,0,0,0,0,0,0,0,0,0,0,0,0,0,0,0,0,0,0,0,0,0,0,0,0,0,0,0,0,0,0,0,0,0,0,0,0,0,0,0,0,0,0,0,0,0,0,0,0,0,0,0,0,0,0,0,0,0,0,0,0,0,0,0,0,0,0,0,0,0,0],"sum_hessian":[3.1995E4,2.3868E4,8.127E3,1.3067E4,1.0801E4,3.816E3,4.311E3,6.572E3,6.495E3,5.347E3,5.454E3,1.903E3,1.913E3,2.106E3,2.205E3,4.324E3,2.248E3,4.319E3,2.176E3,3.504E3,1.843E3,3.667E3,1.787E3,9.44E2,9.59E2,1.264E3,6.49E2,9.64E2,1.142E3,1.458E3,7.47E2,2.129E3,2.195E3,1.141E3,1.107E3,2.461E3,1.858E3,1.48E3,6.96E2,2.309E3,1.195E3,9.16E2,9.27E2,1.795E3,1.872E3,1.182E3,6.05E2,6.21E2,3.23E2,6.3E2,3.29E2,6.4E2,6.24E2,3.4E2,3.09E2,4.87E2,4.77E2,7.72E2,3.7E2,8.17E2,6.41E2,2.81E2,4.66E2,1.378E3,7.51E2,1.471E3,7.24E2,7.73E2,3.68E2,5.78E2,5.29E2,1.655E3,8.06E2,1.245E3,6.13E2,8.46E2,6.34E2,3.42E2,3.54E2,1.164E3,1.145E3,5.98E2,5.97E2,6.02E2,3.14E2,6.32E2,2.95E2,1.174E3,6.21E2,1.234E3,6.38E2,5.62E2,6.2E2,3.12E2,2.93E2,2.25E2,3.96E2,9E1,2.33E2,2.68E2,3.62E2,1.29E2,2E2,3.04E2,3.36E2,3.73E2,2.51E2,1.75E2,1.65E2,1.04E2,2.05E2,3.34E2,1.53E2,3.32E2,1.45E2,4.03E2,3.69E2,1.98E2,1.72E2,4.37E2,3.8E2,3.11E2,3.3E2,1.35E2,1.46E2,2.49E2,2.17E2],"tree_param":{"num_deleted":"0","num_feature":"47","num_nodes":"127","size_leaf_vector":"1"}},{"base_weights":[-1.6224626E-3,1.2478819E-1,-3.701736E-1,4.220854E-2,2.8925434E-1,-4.5545396E-1,-2.0249371E-1,-3.7413225E-2,1.9819003E-1,1.7242461E-1,4.028993E-1,-5.6228393E-1,-3.4375188E-1,-3.1140375E-1,-9.0538435E-2,-1.476031E-1,7.163005E-2,8.509061E-2,3.074228E-1,9.4432265E-2,3.310609E-1,3.2961196E-1,5.54721E-1,-6.525477E-1,-4.7868258E-1,-4.2336604E-1,-2.636349E-1,-3.0252743E-1,-5.0312006E-1,-8.2102664E-2,-2.8104892E-1,-2.315492E-1,-6.278869E-2,-1.3830337E-2,1.614673E-1,1.048833E-2,1.6413851E-1,2.4217029E-1,3.7225702E-1,3.269222E-2,1.5624161E-1,3.3889854E-1,4.078991E-2,2.6188576E-1,3.9081955E-1,5.6166154E-1,3.5685238E-1,-3.370793E-1,-6.5961736E-1,-4.7217354E-1,-6.734293E-1,-7.162701E-2,-4.2599437E-1,-2.5715798E-1,-4.4517922E-1,-3.070478E-1,-8.120103E-2,-4.510591E-1,-7.183189E-1,-8.752356E-2,1.2835048E-1,-3.6310497E-1,-2.7084954E-2,-1.5146501E-2,-8.157369E-3,-6.533959E-3,2.054347E-4,-4.2786603E-3,2.8961399E-3,4.562124E-3,1.1438732E-2,2.3939198E-2,4.0207437E-4,8.7586E-3,-5.462192E-3,1.2478753E-2,-6.1507635E-5,3.5573386E-2,1.8203227E-2,1.8520944E-3,-2.0256199E-2,1.6864901E-2,7.439457E-3,1.6619405E-2,2.5321359E-2,5.5915173E-3,-6.21869E-3,2.2105595E-2,1.2598092E-2,3.0902747E-2,1.92404E-2,3.7799373E-2,2.7708715E-2,1.0258454E-2,2.142611E-2,-1.8555732E-2,-4.2936304E-3,-3.801277E-2,-3.2656875E-2,-1.3862351E-2,-2.3864962E-2,-4.235444E-2,-2.9091775E-2,1.0781318E-2,-6.0957493E-3,-2.6640195E-2,-2.085583E-2,-1.3122891E-2,1.4905607E-3,-2.486774E-2,-1.0902341E-2,-1.4879455E-2,-2.562641E-2,-8.441405E-3,6.1274054E-3,-2.6499728E-2,-1.0229359E-2,-4.1603077E-2,-1.6984478E-2,-4.1686054E-3,-1.7780082E-2,2.1312146E-2,4.217657E-3,-8.411621E-3,-2.0487046E-2,4.8692874E-3,-9.162473E-3],"categories":[],"categories_nodes":[],"categories_segments":[],"categories_sizes":[],"default_left":[0,0,0,0,0,0,0,0,0,0,0,0,0,0,0,0,0,0,0,0,0,0,0,0,0,0,0,0,0,0,0,0,0,0,0,0,0,0,0,0,0,0,0,0,0,0,0,0,0,0,0,0,0,0,0,0,0,0,0,0,0,0,0,0,0,0,0,0,0,0,0,0,0,0,0,0,0,0,0,0,0,0,0,0,0,0,0,0,0,0,0,0,0,0,0,0,0,0,0,0,0,0,0,0,0,0,0,0,0,0,0,0,0,0,0,0,0,0,0,0,0,0,0,0,0,0,0],"id":11,"left_children":[1,3,5,7,9,11,13,15,17,19,21,23,25,27,29,31,33,35,37,39,41,43,45,47,49,51,53,55,57,59,61,63,65,67,69,71,73,75,77,79,81,83,85,87,89,91,93,95,97,99,101,103,105,107,109,111,113,115,117,119,121,123,125,-1,-1,-1,-1,-1,-1,-1,-1,-1,-1,-1,-1,-1,-1,-1,-1,-1,-1,-1,-1,-1,-1,-1,-1,-1,-1,-1,-1,-1,-1,-1,-1,-1,-1,-1,-1,-1,-1,-1,-1,-1,-1,-1,-1,-1,-1,-1,-1,-1,-1,-1,-1,-1,-1,-1,-1,-1,-1,-1,-1,-1,-1,-1,-1],"loss_changes":[1.483247E3,3.219522E2,1.1617944E2,1.9602473E2,1.05138306E2,6.411426E1,3.3417343E1,1.25572174E2,6.5870926E1,4.8332504E1,4.4501648E1,2.046228E1,1.6708374E1,2.213211E0,2.1529446E0,3.6994377E1,4.0332283E1,1.5460617E1,1.1387421E1,1.000074E1,2.9164276E0,1.1135712E1,1.5931091E0,2.723816E0,1.4985046E0,1.1907349E0,1.4341049E0,1.3067093E0,3.482027E-1,1.4920492E0,1.1780043E0,1.2703873E1,1.1749904E1,1.3867916E1,1.2084061E1,1.5430421E0,3.8589592E0,2.4424515E0,3.5176086E0,2.5154247E0,1.7174168E0,1.1993866E0,4.2457438E-1,2.1958313E0,1.7046814E0,1.4143372E0,4.2302275E-1,2.3317838E-1,3.4539795E-1,1.2564697E0,2.0700264E-1,1.8518737E-1,1.0208893E0,1.9454498E0,4.1298676E-1,2.3819046E0,5.205998E-1,8.837948E-1,1.4802074E-1,1.3793001E0,3.965587E-1,3.218546E-1,3.0941445E-1,0E0,0E0,0E0,0E0,0E0,0E0,0E0,0E0,0E0,0E0,0E0,0E0,0E0,0E0,0E0,0E0,0E0,0E0,0E0,0E0,0E0,0E0,0E0,0E0,0E0,0E0,0E0,0E0,0E0,0E0,0E0,0E0,0E0,0E0,0E0,0E0,0E0,0E0,0E0,0E0,0E0,0E0,0E0,0E0,0E0,0E0,0E0,0E0,0E0,0E0,0E0,0E0,0E0,0E0,0E0,0E0,0E0,0E0,0E0,0E0,0E0,0E0,0E0,0E0],"parents":[2147483647,0,0,1,1,2,2,3,3,4,4,5,5,6,6,7,7,8,8,9,9,10,10,11,11,12,12,13,13,14,14,15,15,16,16,17,17,18,18,19,19,20,20,21,21,22,22,23,23,24,24,25,25,26,26,27,27,28,28,29,29,30,30,31,31,32,32,33,33,34,34,35,35,36,36,37,37,38,38,39,39,40,40,41,41,42,42,43,43,44,44,45,45,46,46,47,47,48,48,49,49,50,50,51,51,52,52,53,53,54,54,55,55,56,56,57,57,58,58,59,59,60,60,61,61,62,62],"right_children":[2,4,6,8,10,12,14,16,18,20,22,24,26,28,30,32,34,36,38,40,42,44,46,48,50,52,54,56,58,60,62,64,66,68,70,72,74,76,78,80,82,84,86,88,90,92,94,96,98,100,102,104,106,108,110,112,114,116,118,120,122,124,126,-1,-1,-1,-1,-1,-1,-1,-1,-1,-1,-1,-1,-1,-1,-1,-1,-1,-1,-1,-1,-1,-1,-1,-1,-1,-1,-1,-1,-1,-1,-1,-1,-1,-1,-1,-1,-1,-1,-1,-1,-1,-1,-1,-1,-1,-1,-1,-1,-1,-1,-1,-1,-1,-1,-1,-1,-1,-1,-1,-1,-1,-1,-1,-1],"split_conditions":[1E0,1E0,1E0,1E0,1E0,1E0,1E0,1E0,1E0,1E0,1E0,1E0,1E0,1.017E3,1.028E3,1E0,1E0,1E0,1E0,1E0,1.038E3,1E0,1.024E3,1.72E2,1.033E3,1.6E2,1.033E3,9.42E2,1.067E3,9.57E2,9.88E2,1E0,1E0,1E0,1E0,1.42E2,1.033E3,1.042E3,1.72E2,1.059E3,1.94E2,9.46E2,1.076E3,2.01E2,1.77E2,1.9E2,9.68E2,1E0,1.56E2,1.82E2,9.78E2,2E1,1.73E2,9.57E2,9.95E2,9.66E2,1E0,9.78E2,1E0,1.002E3,9.94E2,2.4E1,1.059E3,-1.5146501E-2,-8.157369E-3,-6.533959E-3,2.054347E-4,-4.2786603E-3,2.8961399E-3,4.562124E-3,1.1438732E-2,2.3939198E-2,4.0207437E-4,8.7586E-3,-5.462192E-3,1.2478753E-2,-6.1507635E-5,3.5573386E-2,1.8203227E-2,1.8520944E-3,-2.0256199E-2,1.6864901E-2,7.439457E-3,1.6619405E-2,2.5321359E-2,5.5915173E-3,-6.21869E-3,2.2105595E-2,1.2598092E-2,3.0902747E-2,1.92404E-2,3.7799373E-2,2.7708715E-2,1.0258454E-2,2.142611E-2,-1.8555732E-2,-4.2936304E-3,-3.801277E-2,-3.2656875E-2,-1.3862351E-2,-2.3864962E-2,-4.235444E-2,-2.9091775E-2,1.0781318E-2,-6.0957493E-3,-2.6640195E-2,-2.085583E-2,-1.3122891E-2,1.4905607E-3,-2.486774E-2,-1.0902341E-2,-1.4879455E-2,-2.562641E-2,-8.441405E-3,6.1274054E-3,-2.6499728E-2,-1.0229359E-2,-4.1603077E-2,-1.6984478E-2,-4.1686054E-3,-1.7780082E-2,2.1312146E-2,4.217657E-3,-8.411621E-3,-2.0487046E-2,4.8692874E-3,-9.162473E-3],"split_indices":[35,36,36,32,6,6,6,6,6,32,32,38,38,8,8,38,38,38,38,33,8,33,8,8,8,8,8,2,8,2,2,33,33,33,33,8,8,8,8,8,8,2,8,8,8,8,2,9,2,8,2,0,2,2,2,8,31,2,42,8,8,0,8,0,0,0,0,0,0,0,0,0,0,0,0,0,0,0,0,0,0,0,0,0,0,0,0,0,0,0,0,0,0,0,0,0,0,0,0,0,0,0,0,0,0,0,0,0,0,0,0,0,0,0,0,0,0,0,0,0,0,0,0,0,0,0,0],"split_type":[0,0,0,0,0,0,0,0,0,0,0,0,0,0,0,0,0,0,0,0,0,0,0,0,0,0,0,0,0,0,0,0,0,0,0,0,0,0,0,0,0,0,0,0,0,0,0,0,0,0,0,0,0,0,0,0,0,0,0,0,0,0,0,0,0,0,0,0,0,0,0,0,0,0,0,0,0,0,0,0,0,0,0,0,0,0,0,0,0,0,0,0,0,0,0,0,0,0,0,0,0,0,0,0,0,0,0,0,0,0,0,0,0,0,0,0,0,0,0,0,0,0,0,0,0,0,0],"sum_hessian":[3.1835E4,2.3705E4,8.13E3,1.5782E4,7.923E3,5.388E3,2.742E3,1.0449E4,5.333E3,3.908E3,4.015E3,2.752E3,2.636E3,1.389E3,1.353E3,5.197E3,5.252E3,2.621E3,2.712E3,2.621E3,1.287E3,2.71E3,1.305E3,1.32E3,1.432E3,1.32E3,1.316E3,1.33E3,5.9E1,1.297E3,5.6E1,2.611E3,2.586E3,2.692E3,2.56E3,1.349E3,1.272E3,1.354E3,1.358E3,1.312E3,1.309E3,1.253E3,3.4E1,1.289E3,1.421E3,1.259E3,4.6E1,3E1,1.29E3,1.389E3,4.3E1,1E1,1.31E3,1.273E3,4.3E1,1.303E3,2.7E1,5E1,9E0,1.265E3,3.2E1,4.2E1,1.4E1,1.276E3,1.335E3,1.283E3,1.303E3,1.346E3,1.346E3,1.254E3,1.306E3,6E0,1.343E3,1.223E3,4.9E1,1.314E3,4E1,3E1,1.328E3,1.3E3,1.2E1,5E1,1.259E3,1.209E3,4.4E1,2.4E1,1E1,6.5E1,1.224E3,3.4E1,1.387E3,4.3E1,1.216E3,1.6E1,3E1,2.6E1,4E0,7.1E1,1.219E3,3.7E1,1.352E3,1.2E1,3.1E1,1E0,9E0,9.6E1,1.214E3,1.25E3,2.3E1,3.4E1,9E0,1.248E3,5.5E1,1.9E1,8E0,3.7E1,1.3E1,6E0,3E0,1.247E3,1.8E1,3E0,2.9E1,9E0,3.3E1,8E0,6E0],"tree_param":{"num_deleted":"0","num_feature":"47","num_nodes":"127","size_leaf_vector":"1"}},{"base_weights":[-8.720117E-4,1.1945009E-1,-3.510186E-1,-3.0865965E-2,2.6842606E-1,-5.0519395E-1,-2.0146349E-1,5.0184365E-2,-1.8992561E-1,1.891117E-1,4.265911E-1,-5.822799E-1,-3.4867853E-1,-2.8112555E-1,-5.1004417E-2,-2.5650669E-2,1.9578364E-1,-2.639896E-1,-3.8048536E-2,8.240439E-2,2.938902E-1,3.186701E-1,5.312701E-1,-6.927431E-1,-4.6797657E-1,-4.4660997E-1,-2.4678199E-1,-3.8010347E-1,-1.7793031E-1,-1.5323971E-1,5.4030698E-2,-1.3661234E-1,8.353388E-2,9.951699E-2,2.9112294E-1,-3.6928272E-1,-1.6013034E-1,-1.4727855E-1,6.861447E-2,8.591461E-3,2.2450976E-1,2.2148137E-1,4.367781E-1,2.468678E-1,4.5846546E-1,4.6094105E-1,6.7677814E-1,-6.177668E-1,-7.690239E-1,-4.0612966E-1,-5.3195477E-1,-1.2388976E-1,-4.5223027E-1,7.8416996E-2,-2.4990447E-1,-3.0346236E-1,-4.6297273E-1,-1.1044701E-1,-2.485611E-1,4.458777E-2,-1.5944111E-1,2.836948E-1,4.664048E-2,-1.1138284E-2,-2.8934178E-3,3.1641786E-4,7.740669E-3,8.64392E-4,9.013154E-3,1.0153166E-2,1.8950623E-2,-2.2107061E-2,-1.5036689E-2,-1.0860164E-2,-4.9271677E-3,2.8531087E-4,-7.7997143E-3,3.934535E-3,-7.3812376E-3,4.529572E-3,-3.6865254E-3,1.4857973E-2,7.99728E-3,1.5255506E-2,7.0530004E-3,2.4942158E-2,1.8694166E-2,9.437402E-3,1.5230477E-2,2.1363009E-2,2.510255E-2,2.038484E-2,2.5425822E-2,3.4117144E-2,1.9618897E-2,-1.665296E-2,-3.1177014E-2,-2.4769293E-2,-3.8830567E-2,-7.6362914E-3,-2.0580381E-2,-2.6171643E-2,-3.6638986E-2,-1.0343651E-2,3.7014484E-4,-2.1855708E-2,-2.773702E-2,1.0642805E-2,-8.58936E-3,-1.831053E-2,-1.18288575E-2,-1.4608482E-2,-1.8224895E-2,-9.586665E-3,-2.3489635E-2,-4.9988325E-3,-1.4806827E-2,-1.1915154E-2,-2.0388398E-2,-1.7211009E-3,1.150495E-2,-1.5385218E-2,-7.6218643E-3,1.7901277E-2,5.4431423E-3,2.5406384E-3,-1.079511E-2],"categories":[],"categories_nodes":[],"categories_segments":[],"categories_sizes":[],"default_left":[0,0,0,0,0,0,0,0,0,0,0,0,0,0,0,0,0,0,0,0,0,0,0,0,0,0,0,0,0,0,0,0,0,0,0,0,0,0,0,0,0,0,0,0,0,0,0,0,0,0,0,0,0,0,0,0,0,0,0,0,0,0,0,0,0,0,0,0,0,0,0,0,0,0,0,0,0,0,0,0,0,0,0,0,0,0,0,0,0,0,0,0,0,0,0,0,0,0,0,0,0,0,0,0,0,0,0,0,0,0,0,0,0,0,0,0,0,0,0,0,0,0,0,0,0,0,0],"id":12,"left_children":[1,3,5,7,9,11,13,15,17,19,21,23,25,27,29,31,33,35,37,39,41,43,45,47,49,51,53,55,57,59,61,63,65,67,69,71,73,75,77,79,81,83,85,87,89,91,93,95,97,99,101,103,105,107,109,111,113,115,117,119,121,123,125,-1,-1,-1,-1,-1,-1,-1,-1,-1,-1,-1,-1,-1,-1,-1,-1,-1,-1,-1,-1,-1,-1,-1,-1,-1,-1,-1,-1,-1,-1,-1,-1,-1,-1,-1,-1,-1,-1,-1,-1,-1,-1,-1,-1,-1,-1,-1,-1,-1,-1,-1,-1,-1,-1,-1,-1,-1,-1,-1,-1,-1,-1,-1,-1],"loss_changes":[1.3501519E3,5.341151E2,1.8887921E2,1.5307431E2,1.50193E2,4.8479736E1,4.9870895E1,8.6857666E1,4.5074448E1,8.9197205E1,4.5018982E1,3.3792175E1,1.3201614E1,2.7724808E1,1.5492903E1,6.268386E1,2.4696548E1,2.940155E1,1.5330909E1,4.148291E1,4.155768E1,1.968103E1,2.045166E1,7.371704E0,5.050537E0,1.1755371E0,6.857147E-1,8.674957E0,6.330925E0,9.0390396E-1,1.1952231E0,1.7394997E1,1.4351288E1,8.907335E0,1.0394592E1,6.54451E0,4.7518997E0,8.675833E-1,1.4627492E0,1.7584719E1,6.294121E0,1.7941055E1,5.0950317E0,4.322006E0,6.9403076E-1,3.265564E0,7.7523804E-1,9.380493E-1,1.0188293E0,8.824539E-1,7.3057556E-1,1.4316769E-1,7.910614E-1,2.7202654E-1,9.208946E-1,3.9253235E-1,1.1400757E0,1.300252E0,9.660034E-1,3.4503615E-1,6.8932724E-1,2.4692273E-1,7.67895E-1,0E0,0E0,0E0,0E0,0E0,0E0,0E0,0E0,0E0,0E0,0E0,0E0,0E0,0E0,0E0,0E0,0E0,0E0,0E0,0E0,0E0,0E0,0E0,0E0,0E0,0E0,0E0,0E0,0E0,0E0,0E0,0E0,0E0,0E0,0E0,0E0,0E0,0E0,0E0,0E0,0E0,0E0,0E0,0E0,0E0,0E0,0E0,0E0,0E0,0E0,0E0,0E0,0E0,0E0,0E0,0E0,0E0,0E0,0E0,0E0,0E0,0E0,0E0,0E0],"parents":[2147483647,0,0,1,1,2,2,3,3,4,4,5,5,6,6,7,7,8,8,9,9,10,10,11,11,12,12,13,13,14,14,15,15,16,16,17,17,18,18,19,19,20,20,21,21,22,22,23,23,24,24,25,25,26,26,27,27,28,28,29,29,30,30,31,31,32,32,33,33,34,34,35,35,36,36,37,37,38,38,39,39,40,40,41,41,42,42,43,43,44,44,45,45,46,46,47,47,48,48,49,49,50,50,51,51,52,52,53,53,54,54,55,55,56,56,57,57,58,58,59,59,60,60,61,61,62,62],"right_children":[2,4,6,8,10,12,14,16,18,20,22,24,26,28,30,32,34,36,38,40,42,44,46,48,50,52,54,56,58,60,62,64,66,68,70,72,74,76,78,80,82,84,86,88,90,92,94,96,98,100,102,104,106,108,110,112,114,116,118,120,122,124,126,-1,-1,-1,-1,-1,-1,-1,-1,-1,-1,-1,-1,-1,-1,-1,-1,-1,-1,-1,-1,-1,-1,-1,-1,-1,-1,-1,-1,-1,-1,-1,-1,-1,-1,-1,-1,-1,-1,-1,-1,-1,-1,-1,-1,-1,-1,-1,-1,-1,-1,-1,-1,-1,-1,-1,-1,-1,-1,-1,-1,-1,-1,-1,-1],"split_conditions":[1E0,1E0,1E0,1E0,1E0,1E0,1E0,1E0,1E0,1E0,1E0,1E0,1E0,1E0,1E0,1E0,1E0,1E0,1E0,1E0,1E0,1E0,1E0,1E0,1E0,1.66E2,1.42E2,1E0,1E0,1.94E2,1.82E2,1E0,1E0,1E0,1E0,1E0,1E0,2.11E2,1.028E3,1E0,1E0,1E0,1E0,1E0,9E0,1E0,1.042E3,1.77E2,1.86E2,1.72E2,1.028E3,1E0,9.59E2,1E0,2.03E2,1E0,1.72E2,1.024E3,1.024E3,1.42E2,1.6E2,1E0,1.052E3,-1.1138284E-2,-2.8934178E-3,3.1641786E-4,7.740669E-3,8.64392E-4,9.013154E-3,1.0153166E-2,1.8950623E-2,-2.2107061E-2,-1.5036689E-2,-1.0860164E-2,-4.9271677E-3,2.8531087E-4,-7.7997143E-3,3.934535E-3,-7.3812376E-3,4.529572E-3,-3.6865254E-3,1.4857973E-2,7.99728E-3,1.5255506E-2,7.0530004E-3,2.4942158E-2,1.8694166E-2,9.437402E-3,1.5230477E-2,2.1363009E-2,2.510255E-2,2.038484E-2,2.5425822E-2,3.4117144E-2,1.9618897E-2,-1.665296E-2,-3.1177014E-2,-2.4769293E-2,-3.8830567E-2,-7.6362914E-3,-2.0580381E-2,-2.6171643E-2,-3.6638986E-2,-1.0343651E-2,3.7014484E-4,-2.1855708E-2,-2.773702E-2,1.0642805E-2,-8.58936E-3,-1.831053E-2,-1.18288575E-2,-1.4608482E-2,-1.8224895E-2,-9.586665E-3,-2.3489635E-2,-4.9988325E-3,-1.4806827E-2,-1.1915154E-2,-2.0388398E-2,-1.7211009E-3,1.150495E-2,-1.5385218E-2,-7.6218643E-3,1.7901277E-2,5.4431423E-3,2.5406384E-3,-1.079511E-2],"split_indices":[35,3,3,37,36,36,36,32,32,6,6,6,6,6,6,6,6,6,6,32,32,32,32,37,37,8,8,37,37,8,8,36,36,36,36,33,33,8,8,37,37,37,37,33,5,33,8,8,8,8,8,29,8,18,2,24,8,8,8,2,2,40,8,0,0,0,0,0,0,0,0,0,0,0,0,0,0,0,0,0,0,0,0,0,0,0,0,0,0,0,0,0,0,0,0,0,0,0,0,0,0,0,0,0,0,0,0,0,0,0,0,0,0,0,0,0,0,0,0,0,0,0,0,0,0,0,0],"split_type":[0,0,0,0,0,0,0,0,0,0,0,0,0,0,0,0,0,0,0,0,0,0,0,0,0,0,0,0,0,0,0,0,0,0,0,0,0,0,0,0,0,0,0,0,0,0,0,0,0,0,0,0,0,0,0,0,0,0,0,0,0,0,0,0,0,0,0,0,0,0,0,0,0,0,0,0,0,0,0,0,0,0,0,0,0,0,0,0,0,0,0,0,0,0,0,0,0,0,0,0,0,0,0,0,0,0,0,0,0,0,0,0,0,0,0,0,0,0,0,0,0,0,0,0,0,0,0],"sum_hessian":[3.2045E4,2.385E4,8.195E3,1.1872E4,1.1978E4,4.034E3,4.161E3,7.865E3,4.007E3,7.979E3,3.999E3,2.701E3,1.333E3,2.72E3,1.441E3,5.172E3,2.693E3,2.693E3,1.314E3,3.954E3,4.025E3,1.971E3,2.028E3,1.371E3,1.33E3,6.78E2,6.55E2,1.387E3,1.333E3,7.3E2,7.11E2,2.565E3,2.607E3,1.341E3,1.352E3,1.336E3,1.357E3,6.49E2,6.65E2,2.603E3,1.351E3,2.673E3,1.352E3,1.304E3,6.67E2,1.37E3,6.58E2,6.96E2,6.75E2,6.8E2,6.5E2,1.2E1,6.66E2,6E0,6.49E2,7.23E2,6.64E2,6.83E2,6.5E2,2.2E1,7.08E2,2.1E1,6.9E2,1.224E3,1.341E3,1.252E3,1.355E3,6.65E2,6.76E2,6.77E2,6.75E2,6.45E2,6.91E2,7.03E2,6.54E2,3.5E1,6.14E2,6.36E2,2.9E1,1.304E3,1.299E3,6.34E2,7.17E2,1.309E3,1.364E3,6.77E2,6.75E2,6.52E2,6.52E2,3.95E2,2.72E2,6.51E2,7.19E2,6.44E2,1.4E1,1.5E1,6.81E2,2E1,6.55E2,1.5E1,6.65E2,6.27E2,2.3E1,7E0,5E0,5.85E2,8.1E1,4E0,2E0,6.4E1,5.85E2,6.15E2,1.08E2,1.7E1,6.47E2,6.48E2,3.5E1,6.13E2,3.7E1,1.6E1,6E0,3E1,6.78E2,1.4E1,7E0,6.8E2,1E1],"tree_param":{"num_deleted":"0","num_feature":"47","num_nodes":"127","size_leaf_vector":"1"}},{"base_weights":[-2.7382284E-5,1.1402475E-1,-3.3243945E-1,3.548396E-1,-4.162993E-2,-1.4854173E-1,-5.311199E-1,4.2359978E-1,2.1404023E-1,6.755977E-2,-1.7024095E-1,-7.515019E-2,-3.049789E-1,-4.605651E-1,-6.768413E-1,4.8842776E-1,2.950669E-1,2.8315887E-1,6.581079E-2,-8.635855E-3,2.1821204E-1,-2.4780782E-1,-1.814639E-2,3.6393154E-2,-1.6801985E-1,-2.0656337E-1,-4.1860428E-1,-3.615852E-1,-5.6504065E-1,-5.546047E-1,-7.550449E-1,6.1310273E-1,4.2334217E-1,3.9367E-1,2.1173368E-1,4.3318844E-1,2.3369986E-1,1.9655962E-1,-9.9143945E-3,5.5048127E-2,-1.3733326E-1,2.8112108E-1,7.622093E-2,-1.7939816E-1,-3.8605738E-1,5.7386078E-2,-1.7267594E-1,-3.998203E-2,1.08969264E-1,-2.3769006E-1,-9.7245276E-2,-1.2429187E-1,-2.5101605E-1,-3.5939145E-1,-4.539083E-1,-4.332853E-1,-2.897756E-1,-6.34565E-1,-4.9441954E-1,-4.9494714E-1,-6.151641E-1,-7.088473E-1,-8.1664014E-1,3.4104932E-2,2.7220262E-2,1.7252121E-2,2.5118295E-2,1.5991068E-2,2.2851186E-2,7.07872E-3,1.3738495E-2,2.5773302E-2,1.733154E-2,1.5779482E-2,7.763968E-3,1.209177E-2,8.137307E-3,2.2041588E-3,-2.604545E-3,6.128274E-3,-7.70044E-4,-3.1474468E-3,-1.0687549E-2,1.755062E-2,1.0588138E-2,7.381776E-3,-6.879461E-4,-4.9361493E-3,-1.3128488E-2,-1.576736E-2,-2.2960234E-2,6.7575336E-3,-1.1115021E-3,-5.5977567E-3,-1.267372E-2,1.047185E-3,-5.3484566E-3,7.881272E-3,1.3786571E-3,-1.002515E-2,-1.5954064E-2,-2.5566693E-3,-8.33463E-3,-1.1464595E-2,-5.0762617E-3,-1.47830425E-2,-1.1512589E-2,-1.8558169E-2,-1.1320316E-2,-2.1537751E-2,-2.6355654E-2,-2.0115169E-2,-2.5325883E-2,-1.1570494E-2,-1.7485775E-2,-2.908277E-2,-3.5573494E-2,-2.2640051E-2,-2.9516047E-2,-2.6852472E-2,-2.142417E-2,-2.1158952E-2,-3.1336498E-2,-3.1505704E-2,-3.6219027E-2,-4.1301694E-2,-3.1580683E-2],"categories":[],"categories_nodes":[],"categories_segments":[],"categories_sizes":[],"default_left":[0,0,0,0,0,0,0,0,0,0,0,0,0,0,0,0,0,0,0,0,0,0,0,0,0,0,0,0,0,0,0,0,0,0,0,0,0,0,0,0,0,0,0,0,0,0,0,0,0,0,0,0,0,0,0,0,0,0,0,0,0,0,0,0,0,0,0,0,0,0,0,0,0,0,0,0,0,0,0,0,0,0,0,0,0,0,0,0,0,0,0,0,0,0,0,0,0,0,0,0,0,0,0,0,0,0,0,0,0,0,0,0,0,0,0,0,0,0,0,0,0,0,0,0,0,0,0],"id":13,"left_children":[1,3,5,7,9,11,13,15,17,19,21,23,25,27,29,31,33,35,37,39,41,43,45,47,49,51,53,55,57,59,61,63,65,67,69,71,73,75,77,79,81,83,85,87,89,91,93,95,97,99,101,103,105,107,109,111,113,115,117,119,121,123,125,-1,-1,-1,-1,-1,-1,-1,-1,-1,-1,-1,-1,-1,-1,-1,-1,-1,-1,-1,-1,-1,-1,-1,-1,-1,-1,-1,-1,-1,-1,-1,-1,-1,-1,-1,-1,-1,-1,-1,-1,-1,-1,-1,-1,-1,-1,-1,-1,-1,-1,-1,-1,-1,-1,-1,-1,-1,-1,-1,-1,-1,-1,-1,-1],"loss_changes":[1.2107295E3,8.912706E2,2.97989E2,9.028516E1,2.0283455E2,4.8634254E1,4.0001465E1,5.210913E1,3.138356E1,8.967618E1,7.823653E1,2.9902164E1,1.5043457E1,2.7147583E1,1.1788513E1,3.3553833E1,1.7213242E1,1.5407211E1,9.665304E0,4.2536415E1,2.3417526E1,4.1468536E1,2.6166857E1,7.2767906E0,7.743023E0,2.6275768E0,1.1475754E0,6.881897E0,5.9954834E0,1.5091705E0,1.6292725E0,6.392395E0,1.6786713E1,4.359314E0,5.0161095E0,3.5032654E0,1.0058975E1,5.087147E-1,1.4120249E0,1.651656E1,9.75214E0,8.738495E0,5.1877112E0,1.9701134E1,7.370468E0,9.327124E0,3.5825462E0,2.6142323E0,2.6610193E0,2.336197E0,2.4989142E0,5.9107924E-1,3.6854935E-1,2.9011917E-1,4.3226624E-1,1.3367844E0,2.308506E0,2.206604E0,2.295105E0,4.9184418E-1,2.7879333E-1,9.512329E-2,4.48761E-2,0E0,0E0,0E0,0E0,0E0,0E0,0E0,0E0,0E0,0E0,0E0,0E0,0E0,0E0,0E0,0E0,0E0,0E0,0E0,0E0,0E0,0E0,0E0,0E0,0E0,0E0,0E0,0E0,0E0,0E0,0E0,0E0,0E0,0E0,0E0,0E0,0E0,0E0,0E0,0E0,0E0,0E0,0E0,0E0,0E0,0E0,0E0,0E0,0E0,0E0,0E0,0E0,0E0,0E0,0E0,0E0,0E0,0E0,0E0,0E0,0E0,0E0,0E0,0E0],"parents":[2147483647,0,0,1,1,2,2,3,3,4,4,5,5,6,6,7,7,8,8,9,9,10,10,11,11,12,12,13,13,14,14,15,15,16,16,17,17,18,18,19,19,20,20,21,21,22,22,23,23,24,24,25,25,26,26,27,27,28,28,29,29,30,30,31,31,32,32,33,33,34,34,35,35,36,36,37,37,38,38,39,39,40,40,41,41,42,42,43,43,44,44,45,45,46,46,47,47,48,48,49,49,50,50,51,51,52,52,53,53,54,54,55,55,56,56,57,57,58,58,59,59,60,60,61,61,62,62],"right_children":[2,4,6,8,10,12,14,16,18,20,22,24,26,28,30,32,34,36,38,40,42,44,46,48,50,52,54,56,58,60,62,64,66,68,70,72,74,76,78,80,82,84,86,88,90,92,94,96,98,100,102,104,106,108,110,112,114,116,118,120,122,124,126,-1,-1,-1,-1,-1,-1,-1,-1,-1,-1,-1,-1,-1,-1,-1,-1,-1,-1,-1,-1,-1,-1,-1,-1,-1,-1,-1,-1,-1,-1,-1,-1,-1,-1,-1,-1,-1,-1,-1,-1,-1,-1,-1,-1,-1,-1,-1,-1,-1,-1,-1,-1,-1,-1,-1,-1,-1,-1,-1,-1,-1,-1,-1,-1],"split_conditions":[1E0,5.2E1,6.1E1,1E0,7.8E1,1E0,1E0,1E0,1E0,1E0,1E0,3.9E1,4.3E1,8.1E1,7.6E1,3.1E1,3.5E1,2.8E1,3.2E1,1E0,1E0,1E0,1E0,1E0,1E0,2.8E1,5E1,1E0,1E0,6.9E1,9E1,1E0,1E0,1E0,1E0,1E0,1E0,2.5E1,4.1E1,1E0,1E0,1E0,6.7E1,1E0,8.9E1,1E0,9E1,3E1,3.2E1,5.3E1,5.3E1,2.71E2,2.6E1,1.4E1,1E0,7.5E1,7.2E1,9.2E1,9.4E1,6.23E2,2E1,2.3E1,9.49E2,3.4104932E-2,2.7220262E-2,1.7252121E-2,2.5118295E-2,1.5991068E-2,2.2851186E-2,7.07872E-3,1.3738495E-2,2.5773302E-2,1.733154E-2,1.5779482E-2,7.763968E-3,1.209177E-2,8.137307E-3,2.2041588E-3,-2.604545E-3,6.128274E-3,-7.70044E-4,-3.1474468E-3,-1.0687549E-2,1.755062E-2,1.0588138E-2,7.381776E-3,-6.879461E-4,-4.9361493E-3,-1.3128488E-2,-1.576736E-2,-2.2960234E-2,6.7575336E-3,-1.1115021E-3,-5.5977567E-3,-1.267372E-2,1.047185E-3,-5.3484566E-3,7.881272E-3,1.3786571E-3,-1.002515E-2,-1.5954064E-2,-2.5566693E-3,-8.33463E-3,-1.1464595E-2,-5.0762617E-3,-1.47830425E-2,-1.1512589E-2,-1.8558169E-2,-1.1320316E-2,-2.1537751E-2,-2.6355654E-2,-2.0115169E-2,-2.5325883E-2,-1.1570494E-2,-1.7485775E-2,-2.908277E-2,-3.5573494E-2,-2.2640051E-2,-2.9516047E-2,-2.6852472E-2,-2.142417E-2,-2.1158952E-2,-3.1336498E-2,-3.1505704E-2,-3.6219027E-2,-4.1301694E-2,-3.1580683E-2],"split_indices":[35,4,4,37,4,37,37,34,34,36,36,4,4,4,4,4,4,4,4,34,34,34,34,36,36,4,4,36,36,4,4,33,36,36,36,33,33,4,4,33,37,33,4,33,4,33,4,4,4,4,4,2,0,5,25,4,4,4,4,2,0,0,2,0,0,0,0,0,0,0,0,0,0,0,0,0,0,0,0,0,0,0,0,0,0,0,0,0,0,0,0,0,0,0,0,0,0,0,0,0,0,0,0,0,0,0,0,0,0,0,0,0,0,0,0,0,0,0,0,0,0,0,0,0,0,0,0],"split_type":[0,0,0,0,0,0,0,0,0,0,0,0,0,0,0,0,0,0,0,0,0,0,0,0,0,0,0,0,0,0,0,0,0,0,0,0,0,0,0,0,0,0,0,0,0,0,0,0,0,0,0,0,0,0,0,0,0,0,0,0,0,0,0,0,0,0,0,0,0,0,0,0,0,0,0,0,0,0,0,0,0,0,0,0,0,0,0,0,0,0,0,0,0,0,0,0,0,0,0,0,0,0,0,0,0,0,0,0,0,0,0,0,0,0,0,0,0,0,0,0,0,0,0,0,0,0,0],"sum_hessian":[3.1933E4,2.3776E4,8.157E3,9.334E3,1.4442E4,4.237E3,3.92E3,6.27E3,3.064E3,7.811E3,6.631E3,2.885E3,1.352E3,2.644E3,1.276E3,4.166E3,2.104E3,2.089E3,9.75E2,5.188E3,2.623E3,4.391E3,2.24E3,1.311E3,1.574E3,7.26E2,6.26E2,1.36E3,1.284E3,5.01E2,7.75E2,1.426E3,2.74E3,9.62E2,1.142E3,5.16E2,1.573E3,3.57E2,6.18E2,3.471E3,1.717E3,1.817E3,8.06E2,2.939E3,1.452E3,1.505E3,7.35E2,6.39E2,6.72E2,7.92E2,7.82E2,2.56E2,4.7E2,2.38E2,3.88E2,6.78E2,6.82E2,6.43E2,6.41E2,2.57E2,2.44E2,4.5E2,3.25E2,7.07E2,7.19E2,1.379E3,1.361E3,4.47E2,5.15E2,5.42E2,6E2,2.62E2,2.54E2,7.68E2,8.05E2,1.5E2,2.07E2,2.71E2,3.47E2,1.772E3,1.699E3,8.71E2,8.46E2,9.03E2,9.14E2,4.49E2,3.57E2,1.493E3,1.446E3,7.41E2,7.11E2,7.61E2,7.44E2,4.21E2,3.14E2,3.35E2,3.04E2,4.2E2,2.52E2,5.46E2,2.46E2,4.71E2,3.11E2,4.4E1,2.12E2,1.45E2,3.25E2,2.17E2,2.1E1,3E2,8.8E1,4.81E2,1.97E2,3.48E2,3.34E2,3.86E2,2.57E2,4.51E2,1.9E2,1.53E2,1.04E2,1.6E1,2.28E2,8.1E1,3.69E2,3.06E2,1.9E1],"tree_param":{"num_deleted":"0","num_feature":"47","num_nodes":"127","size_leaf_vector":"1"}},{"base_weights":[-6.6407534E-5,1.522315E-1,-2.1492156E-1,1.1305576E-2,2.9252648E-1,-3.6059326E-1,-7.259657E-2,-7.212954E-2,2.549999E-1,2.1358879E-1,5.4236615E-1,-4.4216835E-1,